{"learner":{"attributes":{"best_iteration":"150","best_score":"8.125601074031142"},"feature_names":["units_sold","competitor_price","stock_level","day_of_week","holiday_flag","views","moving_avg_demand","price_elasticity","trend_factor"],"feature_types":["int","int","int","int","int","int","float","float","float"],"gradient_booster":{"model":{"gbtree_model_param":{"num_parallel_tree":"1","num_trees":"151"},"iteration_indptr":[0,1,2,3,4,5,6,7,8,9,10,11,12,13,14,15,16,17,18,19,20,21,22,23,24,25,26,27,28,29,30,31,32,33,34,35,36,37,38,39,40,41,42,43,44,45,46,47,48,49,50,51,52,53,54,55,56,57,58,59,60,61,62,63,64,65,66,67,68,69,70,71,72,73,74,75,76,77,78,79,80,81,82,83,84,85,86,87,88,89,90,91,92,93,94,95,96,97,98,99,100,101,102,103,104,105,106,107,108,109,110,111,112,113,114,115,116,117,118,119,120,121,122,123,124,125,126,127,128,129,130,131,132,133,134,135,136,137,138,139,140,141,142,143,144,145,146,147,148,149,150,151],"tree_info":[0,0,0,0,0,0,0,0,0,0,0,0,0,0,0,0,0,0,0,0,0,0,0,0,0,0,0,0,0,0,0,0,0,0,0,0,0,0,0,0,0,0,0,0,0,0,0,0,0,0,0,0,0,0,0,0,0,0,0,0,0,0,0,0,0,0,0,0,0,0,0,0,0,0,0,0,0,0,0,0,0,0,0,0,0,0,0,0,0,0,0,0,0,0,0,0,0,0,0,0,0,0,0,0,0,0,0,0,0,0,0,0,0,0,0,0,0,0,0,0,0,0,0,0,0,0,0,0,0,0,0,0,0,0,0,0,0,0,0,0,0,0,0,0,0,0,0,0,0,0,0],"trees":[{"base_weights":[1.22936635E-5,-1.1389602E2,1.044809E2,-1.7060352E2,-5.784208E1,4.824659E1,1.5939946E2,-1.9468666E2,-1.4229124E2,-8.689951E1,-3.0282446E1,2.0378464E1,7.700823E1,1.2805035E2,1.8524594E2,-2.049881E2,-1.7975125E2,-1.5514676E2,-1.2737623E2,-1.0052405E2,-7.529788E1,-4.2616985E1,-1.9254665E1,7.7295256E0,3.3622475E1,6.31939E1,9.1766846E1,1.1606122E2,1.4339162E2,1.7402116E2,2.0568329E2,-2.126063E2,-1.9849593E2,-1.733434E2,-1.8599713E2,-1.4838683E2,-1.6105956E2,-1.2154745E2,-1.3633974E2,-1.0903475E2,-9.398124E1,-8.120064E1,-6.818181E1,-5.0677322E1,-3.759779E1,-1.2610487E1,-2.6122633E1,1.416896E1,8.0600923E-1,4.0666046E1,2.7226336E1,5.5998585E1,7.063541E1,8.4357544E1,9.651994E1,1.1060418E2,1.2406552E2,1.481292E2,1.3369626E2,1.6609718E2,1.8187239E2,1.9863316E2,2.1338457E2,-1.032743E1,-1.0804565E1,-9.731888E0,-1.0286782E1,-8.954967E0,-8.44284E0,-9.439914E0,-8.933295E0,-7.717819E0,-1.4503748E2,-8.261657E0,-7.795405E0,-1.2688378E2,-1.1580286E2,-1.4052214E2,-6.45904E0,-1.0362122E2,-5.7196994E0,-8.892343E1,-1.002644E2,-7.708544E1,-8.731815E1,-6.267205E1,-7.3818085E1,-4.7113445E1,-5.8059628E1,-3.2223186E1,-4.1979507E1,-1.8497509E1,-8.679455E0,-3.044728E1,-1.9929773E1,7.7147098E0,1.7930862E1,-3.13516E0,8.85786E0,3.461775E1,4.528327E1,2.3203028E1,3.3607677E1,6.0917362E1,5.0269688E1,7.672832E1,6.630219E1,8.932406E1,7.851949E1,1.0129623E2,9.192957E1,1.1421917E2,1.0593109E2,6.464676E0,6.0023646E0,7.0718246E0,1.5218153E2,6.4921227E0,6.9886703E0,1.6923698E2,1.600386E2,9.250906E0,1.7724838E2,1.0247194E1,9.806326E0,1.0469653E1,1.0872298E1,-7.0268908E0,-7.383767E0,-6.1513467E0,-6.485953E0,-5.573052E0,-5.963115E0,-6.842862E0,-7.2148895E0,-5.295036E0,-4.9945564E0,-4.2321754E0,-4.567571E0,-4.8501124E0,-5.2829823E0,-3.692326E0,-3.9928749E0,-4.53304E0,-4.187658E0,-2.853934E0,-3.2339458E0,-3.8012567E0,-3.4812126E0,-2.101637E0,-2.468254E0,-2.7763362E0,-3.0649202E0,-1.7877893E0,-1.4603946E0,-2.2612343E0,-1.9501915E0,-1.106216E0,-8.136243E-1,-1.5903524E-1,-5.604056E-1,-1.2912078E0,-1.6731997E0,-1.1751539E0,-8.5339445E-1,5.2487886E-1,2.959304E-1,1.103214E0,7.582253E-1,-3.0013034E-2,-4.0339443E-1,5.333865E-1,1.9263814E-1,1.5883254E0,1.8266556E0,2.4005997E0,2.0585537E0,1.2345587E0,9.494789E-1,1.5842259E0,1.836997E0,3.2102704E0,2.9176338E0,2.631166E0,2.348314E0,3.7502816E0,4.0175724E0,3.3942E0,3.0587037E0,4.594383E0,4.3462796E0,4.081709E0,3.7431133E0,5.32256E0,4.9862413E0,4.6994553E0,4.3755145E0,5.5293097E0,5.854174E0,5.1485686E0,5.42508E0,7.752399E0,7.406579E0,8.218132E0,8.594895E0,7.7807436E0,8.193094E0,8.732129E0,9.082947E0],"categories":[],"categories_nodes":[],"categories_segments":[],"categories_sizes":[],"default_left":[0,0,0,0,0,0,0,0,0,0,0,0,0,0,0,0,0,0,0,0,0,0,0,0,0,0,0,0,0,0,0,0,0,0,0,0,0,0,0,0,0,0,0,0,0,0,0,0,0,0,0,0,0,0,0,0,0,0,0,0,0,0,0,0,0,0,0,0,0,0,0,0,0,0,0,0,0,0,0,0,0,0,0,0,0,0,0,0,0,0,0,0,0,0,0,0,0,0,0,0,0,0,0,0,0,0,0,0,0,0,0,0,0,0,0,0,0,0,0,0,0,0,0,0,0,0,0,0,0,0,0,0,0,0,0,0,0,0,0,0,0,0,0,0,0,0,0,0,0,0,0,0,0,0,0,0,0,0,0,0,0,0,0,0,0,0,0,0,0,0,0,0,0,0,0,0,0,0,0,0,0,0,0,0,0,0,0,0,0,0,0,0,0,0,0,0,0,0,0,0,0,0,0,0,0,0,0,0,0],"id":0,"left_children":[1,3,5,7,9,11,13,15,17,19,21,23,25,27,29,31,33,35,37,39,41,43,45,47,49,51,53,55,57,59,61,63,65,67,69,71,73,75,77,79,81,83,85,87,89,91,93,95,97,99,101,103,105,107,109,111,113,115,117,119,121,123,125,-1,-1,-1,-1,-1,-1,-1,-1,-1,127,-1,-1,129,131,133,-1,135,-1,137,139,141,143,145,147,149,151,153,155,157,159,161,163,165,167,169,171,173,175,177,179,181,183,185,187,189,191,193,195,197,199,-1,-1,-1,201,-1,-1,203,205,-1,207,-1,-1,-1,-1,-1,-1,-1,-1,-1,-1,-1,-1,-1,-1,-1,-1,-1,-1,-1,-1,-1,-1,-1,-1,-1,-1,-1,-1,-1,-1,-1,-1,-1,-1,-1,-1,-1,-1,-1,-1,-1,-1,-1,-1,-1,-1,-1,-1,-1,-1,-1,-1,-1,-1,-1,-1,-1,-1,-1,-1,-1,-1,-1,-1,-1,-1,-1,-1,-1,-1,-1,-1,-1,-1,-1,-1,-1,-1,-1,-1,-1,-1,-1,-1,-1,-1],"loss_changes":[1.7421778E9,2.2264064E8,2.358062E8,2.37136E7,2.8207576E7,3.0238672E7,3.1276864E7,2.857408E6,3.049632E6,2.7028E6,2.458604E6,3.2099775E6,3.77944E6,3.19472E6,4.820928E6,5.08096E5,2.75424E5,3.19552E5,3.70888E5,4.28712E5,3.83636E5,3.43349E5,4.35365E5,4.370408E5,4.20621E5,5.09692E5,3.07896E5,4.146E5,3.31808E5,8.20352E5,3.648E5,6.3136E4,1.28192E5,6.8128E4,4.5936E4,5.8032E4,7.2544E4,1.23344E5,6.9096E4,8.7368E4,1.3294E5,1.20628E5,1.2602E5,8.335E4,1.22591E5,1.1219419E5,1.251075E5,1.2318125E5,1.4996953E5,1.227885E5,1.252545E5,1.34508E5,1.19318E5,9.4904E4,1.104E5,8.656E4,6.782E4,1.17688E5,4.094E4,1.02576E5,6.6944E4,2.1984E4,1.2368E4,0E0,0E0,0E0,0E0,0E0,0E0,0E0,0E0,0E0,1.0024E4,0E0,0E0,9.456E3,1.9452E4,5.548E3,0E0,3.978E3,0E0,1.8058E4,2.4652E4,2.1334E4,1.6562E4,2.0263E4,1.3903E4,2.323E4,5.30025E3,2.4179E4,2.62015E4,1.53195E4,4.046803E4,3.76565E4,1.93665E4,9.294711E3,3.634725E4,3.9670258E4,1.4026867E4,9.39025E3,2.6323E4,1.8429625E4,1.025725E4,1.8364E4,1.51075E4,6.156E3,1.8244E4,3.646E3,1.2388E4,1.0978E4,1.7216E4,2.118E4,8.31E3,0E0,0E0,0E0,1.3992E4,0E0,0E0,2.9736E4,1.4164E4,0E0,4.48E2,0E0,0E0,0E0,0E0,0E0,0E0,0E0,0E0,0E0,0E0,0E0,0E0,0E0,0E0,0E0,0E0,0E0,0E0,0E0,0E0,0E0,0E0,0E0,0E0,0E0,0E0,0E0,0E0,0E0,0E0,0E0,0E0,0E0,0E0,0E0,0E0,0E0,0E0,0E0,0E0,0E0,0E0,0E0,0E0,0E0,0E0,0E0,0E0,0E0,0E0,0E0,0E0,0E0,0E0,0E0,0E0,0E0,0E0,0E0,0E0,0E0,0E0,0E0,0E0,0E0,0E0,0E0,0E0,0E0,0E0,0E0,0E0,0E0,0E0,0E0,0E0,0E0,0E0,0E0,0E0,0E0,0E0,0E0,0E0,0E0,0E0],"parents":[2147483647,0,0,1,1,2,2,3,3,4,4,5,5,6,6,7,7,8,8,9,9,10,10,11,11,12,12,13,13,14,14,15,15,16,16,17,17,18,18,19,19,20,20,21,21,22,22,23,23,24,24,25,25,26,26,27,27,28,28,29,29,30,30,31,31,32,32,33,33,34,34,35,35,36,36,37,37,38,38,39,39,40,40,41,41,42,42,43,43,44,44,45,45,46,46,47,47,48,48,49,49,50,50,51,51,52,52,53,53,54,54,55,55,56,56,57,57,58,58,59,59,60,60,61,61,62,62,72,72,75,75,76,76,77,77,79,79,81,81,82,82,83,83,84,84,85,85,86,86,87,87,88,88,89,89,90,90,91,91,92,92,93,93,94,94,95,95,96,96,97,97,98,98,99,99,100,100,101,101,102,102,103,103,104,104,105,105,106,106,107,107,108,108,109,109,110,110,111,111,112,112,116,116,119,119,120,120,122,122],"right_children":[2,4,6,8,10,12,14,16,18,20,22,24,26,28,30,32,34,36,38,40,42,44,46,48,50,52,54,56,58,60,62,64,66,68,70,72,74,76,78,80,82,84,86,88,90,92,94,96,98,100,102,104,106,108,110,112,114,116,118,120,122,124,126,-1,-1,-1,-1,-1,-1,-1,-1,-1,128,-1,-1,130,132,134,-1,136,-1,138,140,142,144,146,148,150,152,154,156,158,160,162,164,166,168,170,172,174,176,178,180,182,184,186,188,190,192,194,196,198,200,-1,-1,-1,202,-1,-1,204,206,-1,208,-1,-1,-1,-1,-1,-1,-1,-1,-1,-1,-1,-1,-1,-1,-1,-1,-1,-1,-1,-1,-1,-1,-1,-1,-1,-1,-1,-1,-1,-1,-1,-1,-1,-1,-1,-1,-1,-1,-1,-1,-1,-1,-1,-1,-1,-1,-1,-1,-1,-1,-1,-1,-1,-1,-1,-1,-1,-1,-1,-1,-1,-1,-1,-1,-1,-1,-1,-1,-1,-1,-1,-1,-1,-1,-1,-1,-1,-1,-1,-1,-1,-1,-1,-1,-1,-1],"split_conditions":[2.7E2,1.61E2,3.79E2,1.08E2,2.17E2,3.24E2,4.31E2,8.5E1,1.35E2,1.87E2,2.44E2,2.97E2,3.54E2,4.07E2,4.7E2,6.7E1,1.47E1,1.3433333E1,1.2466666E1,1.73E2,2.03E2,2.28E2,6.9333334E0,5.733333E0,4.6E0,3.39E2,3.64E2,3.95E2,1.5666667E0,4.5E2,4.85E2,1.61E1,1.61E1,9.7E1,9.9E1,1.2E2,1.2E2,1.51E2,1.47E2,1.1166667E1,1.0566667E1,1.0066667E1,9.166667E0,8.833333E0,7.7E0,2.57E2,2.56E2,2.83E2,2.85E2,3.11E2,3.1E2,3.8666666E0,3.1E0,2.9E0,2.4666667E0,2.2333333E0,1.7E0,4.18E2,4.18E2,1.1E0,8E-1,3.6666667E-1,4.96E2,-1.032743E1,-1.0804565E1,-9.731888E0,-1.0286782E1,-8.954967E0,-8.44284E0,-9.439914E0,-8.933295E0,-7.717819E0,1.2366667E1,-8.261657E0,-7.795405E0,1.16E1,1.1266666E1,1.3233334E1,-6.45904E0,1.69E2,-5.7196994E0,9.533334E0,1.15E1,9.166667E0,1.94E2,7.9333334E0,2.11E2,7.5666666E0,9.533334E0,2.37E2,2.35E2,2.5E2,5.733333E0,7.633333E0,2.61E2,5E0,4.8E0,6.8333335E0,6.7E0,3.04E2,4E0,5.8E0,3.18E2,3.2E0,4.5333333E0,3.5E2,4.133333E0,2.3666666E0,3.4333334E0,1.7E0,3.1666667E0,3.87E2,3.86E2,6.464676E0,6.0023646E0,7.0718246E0,1.1333333E0,6.4921227E0,6.9886703E0,4.39E2,4.39E2,9.250906E0,4.61E2,1.0247194E1,9.806326E0,1.0469653E1,1.0872298E1,-7.0268908E0,-7.383767E0,-6.1513467E0,-6.485953E0,-5.573052E0,-5.963115E0,-6.842862E0,-7.2148895E0,-5.295036E0,-4.9945564E0,-4.2321754E0,-4.567571E0,-4.8501124E0,-5.2829823E0,-3.692326E0,-3.9928749E0,-4.53304E0,-4.187658E0,-2.853934E0,-3.2339458E0,-3.8012567E0,-3.4812126E0,-2.101637E0,-2.468254E0,-2.7763362E0,-3.0649202E0,-1.7877893E0,-1.4603946E0,-2.2612343E0,-1.9501915E0,-1.106216E0,-8.136243E-1,-1.5903524E-1,-5.604056E-1,-1.2912078E0,-1.6731997E0,-1.1751539E0,-8.5339445E-1,5.2487886E-1,2.959304E-1,1.103214E0,7.582253E-1,-3.0013034E-2,-4.0339443E-1,5.333865E-1,1.9263814E-1,1.5883254E0,1.8266556E0,2.4005997E0,2.0585537E0,1.2345587E0,9.494789E-1,1.5842259E0,1.836997E0,3.2102704E0,2.9176338E0,2.631166E0,2.348314E0,3.7502816E0,4.0175724E0,3.3942E0,3.0587037E0,4.594383E0,4.3462796E0,4.081709E0,3.7431133E0,5.32256E0,4.9862413E0,4.6994553E0,4.3755145E0,5.5293097E0,5.854174E0,5.1485686E0,5.42508E0,7.752399E0,7.406579E0,8.218132E0,8.594895E0,7.7807436E0,8.193094E0,8.732129E0,9.082947E0],"split_indices":[1,1,1,1,1,1,1,1,1,1,1,1,1,1,1,1,8,8,8,1,1,1,8,8,8,1,1,1,8,1,1,8,8,1,1,1,1,1,1,8,8,8,8,8,8,1,1,1,1,1,1,8,8,8,8,8,8,1,1,8,8,8,1,0,0,0,0,0,0,0,0,0,8,0,0,8,8,8,0,1,0,8,8,8,1,8,1,8,8,1,1,1,8,8,1,8,8,8,8,1,8,8,1,8,8,1,8,8,8,8,8,1,1,0,0,0,8,0,0,1,1,0,1,0,0,0,0,0,0,0,0,0,0,0,0,0,0,0,0,0,0,0,0,0,0,0,0,0,0,0,0,0,0,0,0,0,0,0,0,0,0,0,0,0,0,0,0,0,0,0,0,0,0,0,0,0,0,0,0,0,0,0,0,0,0,0,0,0,0,0,0,0,0,0,0,0,0,0,0,0,0,0,0,0,0,0,0,0,0],"split_type":[0,0,0,0,0,0,0,0,0,0,0,0,0,0,0,0,0,0,0,0,0,0,0,0,0,0,0,0,0,0,0,0,0,0,0,0,0,0,0,0,0,0,0,0,0,0,0,0,0,0,0,0,0,0,0,0,0,0,0,0,0,0,0,0,0,0,0,0,0,0,0,0,0,0,0,0,0,0,0,0,0,0,0,0,0,0,0,0,0,0,0,0,0,0,0,0,0,0,0,0,0,0,0,0,0,0,0,0,0,0,0,0,0,0,0,0,0,0,0,0,0,0,0,0,0,0,0,0,0,0,0,0,0,0,0,0,0,0,0,0,0,0,0,0,0,0,0,0,0,0,0,0,0,0,0,0,0,0,0,0,0,0,0,0,0,0,0,0,0,0,0,0,0,0,0,0,0,0,0,0,0,0,0,0,0,0,0,0,0,0,0,0,0,0,0,0,0,0,0,0,0,0,0,0,0,0,0,0,0],"sum_hessian":[1.464E5,7.0044E4,7.6356E4,3.4818E4,3.5226E4,3.7727E4,3.8629E4,1.8811E4,1.6007E4,1.7146E4,1.808E4,1.9162E4,1.8565E4,1.7459E4,2.117E4,1.1125E4,7.686E3,8.592E3,7.415E3,7.882E3,9.264E3,8.533E3,9.547E3,9.802E3,9.36E3,9.592E3,8.973E3,9.805E3,7.654E3,1.3671E4,7.499E3,5.104E3,6.021E3,3.808E3,3.878E3,4.021E3,4.571E3,4.502E3,2.913E3,3.419E3,4.463E3,5.058E3,4.206E3,3.271E3,5.262E3,4.854E3,4.693E3,5.078E3,4.724E3,4.452E3,4.908E3,4.881E3,4.711E3,3.514E3,5.459E3,5.839E3,3.966E3,5.132E3,2.522E3,6.815E3,6.856E3,3.929E3,3.57E3,1.886E3,3.218E3,3.946E3,2.075E3,1.651E3,2.157E3,2.788E3,1.09E3,1.429E3,2.592E3,2.508E3,2.063E3,2.323E3,2.179E3,1.827E3,1.086E3,1.711E3,1.708E3,2.481E3,1.982E3,3.032E3,2.026E3,2.133E3,2.073E3,2.211E3,1.06E3,2.367E3,2.895E3,1.942E3,2.912E3,2.761E3,1.932E3,1.871E3,3.207E3,3.172E3,1.552E3,1.931E3,2.521E3,3.013E3,1.895E3,2.621E3,2.26E3,1.951E3,2.76E3,1.891E3,1.623E3,2.665E3,2.794E3,3.279E3,2.56E3,1.71E3,2.256E3,1.949E3,3.183E3,1.557E3,9.65E2,4.471E3,2.344E3,4.057E3,2.799E3,1.094E3,2.835E3,1.827E3,1.743E3,9.78E2,1.614E3,1.003E3,1.32E3,9.81E2,1.198E3,9.46E2,8.81E2,1.045E3,6.66E2,9.11E2,1.57E3,1.247E3,7.35E2,1.411E3,1.621E3,1.033E3,9.93E2,5.71E2,1.562E3,1.347E3,7.26E2,6.85E2,1.526E3,6.05E2,4.55E2,1.085E3,1.282E3,1.378E3,1.517E3,7.35E2,1.207E3,9.18E2,1.994E3,1.094E3,1.667E3,8.56E2,1.076E3,7.32E2,1.139E3,1.283E3,1.924E3,2.096E3,1.076E3,1.139E3,4.13E2,7.83E2,1.148E3,1.509E3,1.012E3,2.223E3,7.9E2,1.181E3,7.14E2,1.138E3,1.483E3,1.311E3,9.49E2,1.337E3,6.14E2,2.1E3,6.6E2,8.96E2,9.95E2,8.65E2,7.58E2,6.07E2,2.058E3,1.892E3,9.02E2,1.463E3,1.816E3,1.209E3,1.351E3,1.842E3,1.341E3,1.601E3,2.87E3,1.106E3,1.238E3,1.785E3,1.014E3],"tree_param":{"num_deleted":"0","num_feature":"9","num_nodes":"209","size_leaf_vector":"1"}},{"base_weights":[4.67662E-6,-1.0820479E2,9.9260124E1,-1.6298111E2,-5.5830097E1,4.5836323E1,1.5143391E2,-1.8495642E2,-1.3617168E2,-8.3424576E1,-2.8769741E1,1.9360395E1,7.3161125E1,1.2165185E2,1.7598843E2,-1.9474239E2,-1.7076836E2,-1.4739386E2,-1.220411E2,-9.642662E1,-7.15362E1,-4.0488235E1,-1.829274E1,7.343347E0,3.1942787E1,6.003685E1,8.718253E1,1.1026167E2,1.3622668E2,1.6532448E2,1.9540463E2,-2.0123653E2,-1.8783133E2,-1.6562686E2,-1.7785713E2,-1.4233632E2,-1.5463187E2,-1.16068375E2,-1.2951898E2,-1.04367004E2,-8.928642E1,-7.7143845E1,-6.4775894E1,-4.814664E1,-3.571932E1,-1.1545924E1,-2.4414467E1,1.3461037E1,7.6576245E-1,3.9379704E1,2.6463633E1,5.270218E1,6.66468E1,9.174873E1,8.0202805E1,1.04260284E2,1.1683689E2,1.4165294E2,1.2852136E2,1.5779712E2,1.7278271E2,1.887066E2,2.0272131E2,-1.954003E2,-2.048293E2,-9.221385E0,-9.734696E0,-8.53849E0,-1.613438E2,-9.025175E0,-8.5230665E0,-7.3341713E0,-1.3815175E2,-7.9082284E0,-7.479233E0,-6.1118193E0,-1.1199963E2,-1.3308739E2,-6.1510973E0,-9.924477E1,-1.0968487E2,-8.448081E1,-9.5256294E1,-7.260675E1,-8.21722E1,-5.9541298E1,-7.0130684E1,-4.475984E1,-5.5162155E1,-3.0852165E1,-4.010198E1,-1.7165533E1,-7.9006066E0,-2.86001E1,-1.86012E1,7.3294163E0,1.7034893E1,-2.6837902E0,9.120569E0,3.358993E1,4.349754E1,2.2553518E1,3.250848E1,5.684717E1,4.6710667E1,7.2609055E1,6.25408E1,8.642372E1,9.575982E1,7.5222824E1,8.526185E1,1.07263695E2,9.9543625E1,6.1143827E0,1.12961075E2,6.8185663E0,7.306053E0,1.2434258E2,1.3431914E2,1.616091E2,1.5324033E2,1.7557774E2,8.404495E0,9.215524E0,9.59842E0,9.946457E0,1.0328996E1,-1.0072635E1,-9.606124E0,-1.0532461E1,-1.0134181E1,-7.861043E0,-8.226348E0,-6.6955504E0,-7.0770717E0,-5.327978E0,-5.7170863E0,-6.4815216E0,-6.8545556E0,-5.0630045E0,-4.759515E0,-5.358521E0,-5.6223006E0,-4.0207987E0,-4.339338E0,-4.6078014E0,-5.0191917E0,-3.4824731E0,-3.7464974E0,-4.2726474E0,-3.9432042E0,-3.1273932E0,-2.7954998E0,-3.3864522E0,-3.6835067E0,-2.0118861E0,-2.3523743E0,-2.6377485E0,-2.9120107E0,-1.71079E0,-1.3976283E0,-2.1526773E0,-1.866716E0,-1.0349017E0,-7.521661E-1,-1.5109251E-1,-5.16652E-1,-1.2143575E0,-1.5895904E0,-1.1055894E0,-7.9309684E-1,2.71356E-1,4.8976335E-1,1.0480965E0,7.2033304E-1,-1.5000634E-2,-3.6687335E-1,5.4884464E-1,2.595683E-1,1.5069512E0,1.7415653E0,2.3328612E0,2.037099E0,1.2530046E0,9.9103355E-1,1.8034071E0,1.5393349E0,2.9913793E0,2.7055817E0,2.4193754E0,2.160916E0,3.48283E0,3.7389457E0,2.976018E0,3.2773824E0,4.1393514E0,4.409737E0,4.957556E0,4.6361747E0,3.906669E0,3.556205E0,4.1793404E0,4.4254217E0,5.654168E0,5.296196E0,4.8679085E0,5.0939746E0,5.424047E0,5.75923E0,6.3635254E0,6.0531936E0,6.8425403E0,6.4360933E0,7.8431053E0,8.20296E0,7.453758E0,7.832972E0,8.581927E0,8.878519E0],"categories":[],"categories_nodes":[],"categories_segments":[],"categories_sizes":[],"default_left":[0,0,0,0,0,0,0,0,0,0,0,0,0,0,0,0,0,0,0,0,0,0,0,0,0,0,0,0,0,0,0,0,0,0,0,0,0,0,0,0,0,0,0,0,0,0,0,0,0,0,0,0,0,0,0,0,0,0,0,0,0,0,0,0,0,0,0,0,0,0,0,0,0,0,0,0,0,0,0,0,0,0,0,0,0,0,0,0,0,0,0,0,0,0,0,0,0,0,0,0,0,0,0,0,0,0,0,0,0,0,0,0,0,0,0,0,0,0,0,0,0,0,0,0,0,0,0,0,0,0,0,0,0,0,0,0,0,0,0,0,0,0,0,0,0,0,0,0,0,0,0,0,0,0,0,0,0,0,0,0,0,0,0,0,0,0,0,0,0,0,0,0,0,0,0,0,0,0,0,0,0,0,0,0,0,0,0,0,0,0,0,0,0,0,0,0,0,0,0,0,0,0,0,0,0,0,0,0,0,0,0,0,0,0,0,0,0,0,0],"id":1,"left_children":[1,3,5,7,9,11,13,15,17,19,21,23,25,27,29,31,33,35,37,39,41,43,45,47,49,51,53,55,57,59,61,63,65,67,69,71,73,75,77,79,81,83,85,87,89,91,93,95,97,99,101,103,105,107,109,111,113,115,117,119,121,123,125,127,129,-1,-1,-1,131,-1,-1,-1,133,-1,-1,-1,135,137,-1,139,141,143,145,147,149,151,153,155,157,159,161,163,165,167,169,171,173,175,177,179,181,183,185,187,189,191,193,195,197,199,201,203,205,-1,207,-1,-1,209,211,213,215,217,-1,-1,-1,-1,-1,-1,-1,-1,-1,-1,-1,-1,-1,-1,-1,-1,-1,-1,-1,-1,-1,-1,-1,-1,-1,-1,-1,-1,-1,-1,-1,-1,-1,-1,-1,-1,-1,-1,-1,-1,-1,-1,-1,-1,-1,-1,-1,-1,-1,-1,-1,-1,-1,-1,-1,-1,-1,-1,-1,-1,-1,-1,-1,-1,-1,-1,-1,-1,-1,-1,-1,-1,-1,-1,-1,-1,-1,-1,-1,-1,-1,-1,-1,-1,-1,-1,-1,-1,-1,-1,-1,-1,-1,-1,-1,-1,-1],"loss_changes":[1.5724191E9,2.0094253E8,2.1282464E8,2.0145344E7,2.6736768E7,2.729288E7,2.8228032E7,2.578624E6,2.428224E6,2.733528E6,2.21915E6,2.8972725E6,3.411304E6,2.88352E6,4.351296E6,4.61568E5,2.5072E5,2.92544E5,2.902E5,4.70616E5,3.46236E5,3.09961E5,3.9407125E5,3.944587E5,3.804E5,4.61572E5,2.78648E5,3.74768E5,3.01856E5,7.40288E5,3.2928E5,7.9968E4,9.0336E4,7.0912E4,3.2208E4,7.1976E4,3.916E4,8.1904E4,5.378E4,9.8128E4,1.2002E5,1.0945E5,1.13746E5,7.5274E4,1.11028E5,9.2949375E4,1.212505E5,1.1117394E5,1.3620061E5,9.3165E4,1.2673575E5,1.10392E5,1.18894E5,1.07448E5,8.3202E4,6.208E4,8.4864E4,8.584E4,6.0196E4,9.3632E4,6.0416E4,2.0976E4,1.1168E4,4.984E3,1.28E3,0E0,0E0,0E0,6.376E3,0E0,0E0,0E0,1.8432E4,0E0,0E0,0E0,1.7208E4,9.096E3,0E0,7.102E3,1.516E3,1.6284E4,2.2272E4,1.3112E4,1.9222E4,1.98015E4,1.2641E4,2.099E4,4.789E3,2.3407E4,2.0988E4,1.308525E4,3.269864E4,3.92585E4,1.98245E4,8.727977E3,3.2808312E4,3.710499E4,1.0015859E4,6.035625E3,1.8264E4,2.1957875E4,1.18585E4,1.8662E4,8.842E3,7.923E3,2.328E4,7.758E3,2.2534E4,1.5929E4,2.156E3,1.2388E4,3.5E2,0E0,1.4832E4,0E0,0E0,2.432E3,1.046E3,1.7216E4,2.1136E4,3.088E3,0E0,0E0,0E0,0E0,0E0,0E0,0E0,0E0,0E0,0E0,0E0,0E0,0E0,0E0,0E0,0E0,0E0,0E0,0E0,0E0,0E0,0E0,0E0,0E0,0E0,0E0,0E0,0E0,0E0,0E0,0E0,0E0,0E0,0E0,0E0,0E0,0E0,0E0,0E0,0E0,0E0,0E0,0E0,0E0,0E0,0E0,0E0,0E0,0E0,0E0,0E0,0E0,0E0,0E0,0E0,0E0,0E0,0E0,0E0,0E0,0E0,0E0,0E0,0E0,0E0,0E0,0E0,0E0,0E0,0E0,0E0,0E0,0E0,0E0,0E0,0E0,0E0,0E0,0E0,0E0,0E0,0E0,0E0,0E0,0E0,0E0,0E0,0E0,0E0,0E0,0E0,0E0,0E0,0E0,0E0,0E0,0E0],"parents":[2147483647,0,0,1,1,2,2,3,3,4,4,5,5,6,6,7,7,8,8,9,9,10,10,11,11,12,12,13,13,14,14,15,15,16,16,17,17,18,18,19,19,20,20,21,21,22,22,23,23,24,24,25,25,26,26,27,27,28,28,29,29,30,30,31,31,32,32,33,33,34,34,35,35,36,36,37,37,38,38,39,39,40,40,41,41,42,42,43,43,44,44,45,45,46,46,47,47,48,48,49,49,50,50,51,51,52,52,53,53,54,54,55,55,56,56,57,57,58,58,59,59,60,60,61,61,62,62,63,63,64,64,68,68,72,72,76,76,77,77,79,79,80,80,81,81,82,82,83,83,84,84,85,85,86,86,87,87,88,88,89,89,90,90,91,91,92,92,93,93,94,94,95,95,96,96,97,97,98,98,99,99,100,100,101,101,102,102,103,103,104,104,105,105,106,106,107,107,108,108,109,109,110,110,111,111,112,112,114,114,117,117,118,118,119,119,120,120,121,121],"right_children":[2,4,6,8,10,12,14,16,18,20,22,24,26,28,30,32,34,36,38,40,42,44,46,48,50,52,54,56,58,60,62,64,66,68,70,72,74,76,78,80,82,84,86,88,90,92,94,96,98,100,102,104,106,108,110,112,114,116,118,120,122,124,126,128,130,-1,-1,-1,132,-1,-1,-1,134,-1,-1,-1,136,138,-1,140,142,144,146,148,150,152,154,156,158,160,162,164,166,168,170,172,174,176,178,180,182,184,186,188,190,192,194,196,198,200,202,204,206,-1,208,-1,-1,210,212,214,216,218,-1,-1,-1,-1,-1,-1,-1,-1,-1,-1,-1,-1,-1,-1,-1,-1,-1,-1,-1,-1,-1,-1,-1,-1,-1,-1,-1,-1,-1,-1,-1,-1,-1,-1,-1,-1,-1,-1,-1,-1,-1,-1,-1,-1,-1,-1,-1,-1,-1,-1,-1,-1,-1,-1,-1,-1,-1,-1,-1,-1,-1,-1,-1,-1,-1,-1,-1,-1,-1,-1,-1,-1,-1,-1,-1,-1,-1,-1,-1,-1,-1,-1,-1,-1,-1,-1,-1,-1,-1,-1,-1,-1,-1,-1,-1,-1,-1],"split_conditions":[2.7E2,1.59E2,3.79E2,1.08E2,2.17E2,3.24E2,4.31E2,8.5E1,1.35E2,1.87E2,2.44E2,2.97E2,3.54E2,4.07E2,4.7E2,6.9E1,1.4933333E1,1.3766666E1,1.2366667E1,1.73E2,2.03E2,2.28E2,6.8333335E0,5.733333E0,4.4666667E0,3.38E2,2.8E0,3.93E2,1.4333333E0,4.5E2,4.85E2,1.61E1,1.61E1,9.7E1,9.9E1,1.23E2,1.2E2,1.47E2,1.47E2,1.1266666E1,1.0566667E1,9.866667E0,9.166667E0,8.833333E0,7.766667E0,2.57E2,2.56E2,2.83E2,2.86E2,3.11E2,3.1E2,4E0,3.1E0,3.67E2,3.64E2,2.3333333E0,1.7E0,4.2E2,4.18E2,9.6666664E-1,8.333333E-1,4.76E2,4.96E2,5.8E1,4.8E1,-9.221385E0,-9.734696E0,-8.53849E0,1.3866667E1,-9.025175E0,-8.5230665E0,-7.3341713E0,1.2666667E1,-7.9082284E0,-7.479233E0,-6.1118193E0,1.0966666E1,1.3233334E1,-6.1510973E0,1.69E2,1.21E1,9.533334E0,1.15E1,9E0,1.94E2,2.11E2,1.0133333E1,7.633333E0,9.533334E0,2.37E2,2.35E2,2.5E2,5.733333E0,7.633333E0,2.61E2,2.78E2,4.8E0,6.8333335E0,6.5333333E0,3.02E2,3.7333333E0,5.3333335E0,4.866667E0,3.3333333E0,4.8E0,3.46E2,3.45E2,3.59E2,2.1333334E0,3.4333334E0,3.73E2,1.4333333E0,3.86E2,6.1143827E0,3.97E2,6.8185663E0,7.306053E0,1.9E0,1.9E0,4.39E2,4.39E2,4.57E2,8.404495E0,9.215524E0,9.59842E0,9.946457E0,1.0328996E1,-1.0072635E1,-9.606124E0,-1.0532461E1,-1.0134181E1,-7.861043E0,-8.226348E0,-6.6955504E0,-7.0770717E0,-5.327978E0,-5.7170863E0,-6.4815216E0,-6.8545556E0,-5.0630045E0,-4.759515E0,-5.358521E0,-5.6223006E0,-4.0207987E0,-4.339338E0,-4.6078014E0,-5.0191917E0,-3.4824731E0,-3.7464974E0,-4.2726474E0,-3.9432042E0,-3.1273932E0,-2.7954998E0,-3.3864522E0,-3.6835067E0,-2.0118861E0,-2.3523743E0,-2.6377485E0,-2.9120107E0,-1.71079E0,-1.3976283E0,-2.1526773E0,-1.866716E0,-1.0349017E0,-7.521661E-1,-1.5109251E-1,-5.16652E-1,-1.2143575E0,-1.5895904E0,-1.1055894E0,-7.9309684E-1,2.71356E-1,4.8976335E-1,1.0480965E0,7.2033304E-1,-1.5000634E-2,-3.6687335E-1,5.4884464E-1,2.595683E-1,1.5069512E0,1.7415653E0,2.3328612E0,2.037099E0,1.2530046E0,9.9103355E-1,1.8034071E0,1.5393349E0,2.9913793E0,2.7055817E0,2.4193754E0,2.160916E0,3.48283E0,3.7389457E0,2.976018E0,3.2773824E0,4.1393514E0,4.409737E0,4.957556E0,4.6361747E0,3.906669E0,3.556205E0,4.1793404E0,4.4254217E0,5.654168E0,5.296196E0,4.8679085E0,5.0939746E0,5.424047E0,5.75923E0,6.3635254E0,6.0531936E0,6.8425403E0,6.4360933E0,7.8431053E0,8.20296E0,7.453758E0,7.832972E0,8.581927E0,8.878519E0],"split_indices":[1,1,1,1,1,1,1,1,1,1,1,1,1,1,1,1,8,8,8,1,1,1,8,8,8,1,8,1,8,1,1,8,8,1,1,1,1,1,1,8,8,8,8,8,8,1,1,1,1,1,1,8,8,1,1,8,8,1,1,8,8,1,1,1,1,0,0,0,8,0,0,0,8,0,0,0,8,8,0,1,8,8,8,8,1,1,8,8,8,1,1,1,8,8,1,1,8,8,8,1,8,8,8,8,8,1,1,1,8,8,1,8,1,0,1,0,0,8,8,1,1,1,0,0,0,0,0,0,0,0,0,0,0,0,0,0,0,0,0,0,0,0,0,0,0,0,0,0,0,0,0,0,0,0,0,0,0,0,0,0,0,0,0,0,0,0,0,0,0,0,0,0,0,0,0,0,0,0,0,0,0,0,0,0,0,0,0,0,0,0,0,0,0,0,0,0,0,0,0,0,0,0,0,0,0,0,0,0,0,0,0,0,0,0,0,0,0,0,0],"split_type":[0,0,0,0,0,0,0,0,0,0,0,0,0,0,0,0,0,0,0,0,0,0,0,0,0,0,0,0,0,0,0,0,0,0,0,0,0,0,0,0,0,0,0,0,0,0,0,0,0,0,0,0,0,0,0,0,0,0,0,0,0,0,0,0,0,0,0,0,0,0,0,0,0,0,0,0,0,0,0,0,0,0,0,0,0,0,0,0,0,0,0,0,0,0,0,0,0,0,0,0,0,0,0,0,0,0,0,0,0,0,0,0,0,0,0,0,0,0,0,0,0,0,0,0,0,0,0,0,0,0,0,0,0,0,0,0,0,0,0,0,0,0,0,0,0,0,0,0,0,0,0,0,0,0,0,0,0,0,0,0,0,0,0,0,0,0,0,0,0,0,0,0,0,0,0,0,0,0,0,0,0,0,0,0,0,0,0,0,0,0,0,0,0,0,0,0,0,0,0,0,0,0,0,0,0,0,0,0,0,0,0,0,0,0,0,0,0,0,0],"sum_hessian":[1.464E5,7.0044E4,7.6356E4,3.4236E4,3.5808E4,3.7727E4,3.8629E4,1.8811E4,1.5425E4,1.7728E4,1.808E4,1.9162E4,1.8565E4,1.7459E4,2.117E4,1.1125E4,7.686E3,8.592E3,6.833E3,8.464E3,9.264E3,8.533E3,9.547E3,9.802E3,9.36E3,9.592E3,8.973E3,9.805E3,7.654E3,1.3671E4,7.499E3,5.721E3,5.404E3,4.469E3,3.217E3,5.07E3,3.522E3,3.808E3,3.025E3,4.001E3,4.463E3,5.058E3,4.206E3,3.271E3,5.262E3,4.543E3,5.004E3,5.078E3,4.724E3,3.968E3,5.392E3,4.551E3,5.041E3,5.417E3,3.556E3,5.135E3,4.67E3,4.481E3,3.173E3,6.815E3,6.856E3,3.929E3,3.57E3,2.201E3,3.52E3,3.631E3,1.773E3,2.013E3,2.456E3,2.352E3,8.65E2,2.47E3,2.6E3,2.054E3,1.468E3,1.502E3,2.306E3,1.94E3,1.085E3,2.048E3,1.953E3,2.481E3,1.982E3,2.667E3,2.391E3,2.133E3,2.073E3,2.211E3,1.06E3,2.497E3,2.765E3,1.786E3,2.757E3,2.907E3,2.097E3,1.871E3,3.207E3,3.344E3,1.38E3,1.653E3,2.315E3,3.277E3,2.115E3,2.685E3,1.866E3,2.049E3,2.992E3,2.337E3,3.08E3,1.8E3,1.756E3,3.124E3,2.011E3,1.928E3,2.742E3,2.068E3,2.413E3,1.857E3,1.316E3,3.692E3,3.123E3,4.274E3,2.582E3,1.698E3,2.231E3,1.827E3,1.743E3,7.52E2,1.449E3,9.22E2,2.598E3,1.092E3,1.364E3,1.173E3,1.427E3,7.08E2,1.598E3,1.059E3,8.81E2,1.352E3,6.96E2,1.043E3,9.1E2,9.11E2,1.57E3,1.247E3,7.35E2,1.187E3,1.48E3,1.188E3,1.203E3,1.158E3,9.75E2,1.247E3,8.26E2,7.49E2,1.462E3,6.05E2,4.55E2,1.151E3,1.346E3,1.331E3,1.434E3,6.67E2,1.119E3,9.18E2,1.839E3,1.24E3,1.667E3,9.16E2,1.181E3,1.058E3,8.13E2,1.283E3,1.924E3,2.212E3,1.132E3,9.36E2,4.44E2,4.44E2,1.209E3,1.071E3,1.244E3,1.705E3,1.572E3,6.83E2,1.432E3,1.275E3,1.41E3,1.252E3,6.14E2,8.82E2,1.167E3,1.503E3,1.489E3,7.81E2,1.556E3,1.44E3,1.64E3,1.042E3,7.58E2,1.176E3,5.8E2,5.69E2,2.555E3,1.061E3,9.5E2,9.26E2,1.816E3,9.61E2,8.96E2,8.9E2,4.26E2,1.279E3,2.413E3,1.428E3,1.695E3,1.465E3,2.809E3],"tree_param":{"num_deleted":"0","num_feature":"9","num_nodes":"219","size_leaf_vector":"1"}},{"base_weights":[-1.16681724E-4,-1.01762886E2,9.525992E1,-1.531564E2,-5.0383923E1,4.540082E1,1.4477219E2,-1.7531395E2,-1.27057465E2,-7.6714005E1,-2.559047E1,1.9282692E1,7.038675E1,1.1698554E2,1.6762244E2,-1.850106E2,-1.6182495E2,-1.3955595E2,-1.1409692E2,-8.801002E1,-6.53404E1,-3.6269775E1,-1.5158442E1,8.668063E0,3.126132E1,5.7037483E1,8.363065E1,1.055603E2,1.2997537E2,1.5746352E2,1.8563962E2,-1.9118176E2,-1.7844328E2,-1.5445491E2,-1.6654173E2,-1.3320963E2,-1.445054E2,-1.2197536E2,-1.08099655E2,-9.648498E1,-8.2335884E1,-7.0311485E1,-5.8253513E1,-4.181895E1,-3.0506643E1,-9.157787E0,-2.1606478E1,2.4591634E0,1.4422138E1,3.824144E1,2.628748E1,5.006933E1,6.3317135E1,7.660832E1,8.822566E1,1.0058575E2,1.1199171E2,1.3572598E2,1.2314293E2,1.5071304E2,1.6452531E2,1.7927606E2,1.9259093E2,-9.78955E0,-1.8700467E2,-8.748535E0,-9.225557E0,-7.999275E0,-7.5478053E0,-1.6958281E2,-7.9951057E0,-6.872417E0,-1.2968915E2,-1.482672E2,-7.020588E0,-1.1719648E2,-6.3909197E0,-1.027798E2,-1.1287631E2,-9.151696E1,-1.0229068E2,-7.761368E1,-8.785288E1,-6.597868E1,-7.461975E1,-5.2577614E1,-6.328749E1,-3.7741043E1,-4.6851643E1,-2.6137144E1,-3.4602123E1,-1.3382496E1,-4.6232896E0,-2.5389366E1,-1.5613329E1,7.3304152E0,-3.1607504E0,1.949953E1,1.0545107E1,3.2846825E1,4.1585495E1,2.2526566E1,3.1075806E1,5.507821E1,4.557883E1,6.8092926E1,5.8685978E1,8.023076E1,7.006008E1,9.286352E1,8.438296E1,1.0533584E2,9.759535E1,1.1593321E2,5.3817005E0,6.448147E0,1.3913208E2,1.1932826E2,1.2969742E2,1.5425525E2,1.4627504E2,8.362952E0,8.020234E0,9.2623415E0,8.845375E0,9.449407E0,9.812841E0,-9.126149E0,-9.550597E0,-8.297415E0,-8.652777E0,-6.2589235E0,-6.590801E0,-7.2517104E0,-7.572572E0,-5.6654525E0,-5.977253E0,-5.3722434E0,-5.0433035E0,-5.5421124E0,-5.9246926E0,-4.733089E0,-4.4524665E0,-4.9770846E0,-5.258317E0,-3.6988442E0,-4.0012546E0,-4.251622E0,-4.5966477E0,-3.165432E0,-3.4196057E0,-3.8951986E0,-3.6328208E0,-2.7511756E0,-2.4400055E0,-3.0251095E0,-3.3577385E0,-2.083951E0,-1.7891712E0,-2.205953E0,-2.5497E0,-1.1783873E0,-1.4164613E0,-1.8579142E0,-1.6392266E0,-8.091987E-1,-5.537929E-1,9.864433E-3,-3.8145408E-1,-1.0692859E0,-1.4665325E0,-9.1946787E-1,-6.6297823E-1,4.9632126E-1,2.1844864E-1,-2.8754285E-1,-7.900889E-3,1.1674707E0,8.8532573E-1,6.177139E-1,2.9244325E-1,1.730374E0,1.5690777E0,1.943539E0,2.2127721E0,1.2831103E0,1.0246079E0,1.7175591E0,1.4624218E0,2.6414747E0,2.8783376E0,2.3854508E0,2.1043134E0,3.3189113E0,3.6087322E0,2.7887096E0,3.0824068E0,4.1661124E0,3.9025567E0,3.6139653E0,3.3529058E0,4.485603E0,4.7658496E0,4.113572E0,4.435598E0,5.150037E0,5.4342628E0,4.9906096E0,4.7445383E0,5.9439807E0,5.6643977E0,6.8019233E0,7.0813575E0,6.1070514E0,5.77048E0,6.58646E0,6.1754684E0,7.5850906E0,7.922725E0,7.102582E0,7.452408E0],"categories":[],"categories_nodes":[],"categories_segments":[],"categories_sizes":[],"default_left":[0,0,0,0,0,0,0,0,0,0,0,0,0,0,0,0,0,0,0,0,0,0,0,0,0,0,0,0,0,0,0,0,0,0,0,0,0,0,0,0,0,0,0,0,0,0,0,0,0,0,0,0,0,0,0,0,0,0,0,0,0,0,0,0,0,0,0,0,0,0,0,0,0,0,0,0,0,0,0,0,0,0,0,0,0,0,0,0,0,0,0,0,0,0,0,0,0,0,0,0,0,0,0,0,0,0,0,0,0,0,0,0,0,0,0,0,0,0,0,0,0,0,0,0,0,0,0,0,0,0,0,0,0,0,0,0,0,0,0,0,0,0,0,0,0,0,0,0,0,0,0,0,0,0,0,0,0,0,0,0,0,0,0,0,0,0,0,0,0,0,0,0,0,0,0,0,0,0,0,0,0,0,0,0,0,0,0,0,0,0,0,0,0,0,0,0,0,0,0,0,0,0,0,0,0,0,0,0,0,0,0,0,0,0,0,0,0,0,0,0,0],"id":2,"left_children":[1,3,5,7,9,11,13,15,17,19,21,23,25,27,29,31,33,35,37,39,41,43,45,47,49,51,53,55,57,59,61,63,65,67,69,71,73,75,77,79,81,83,85,87,89,91,93,95,97,99,101,103,105,107,109,111,113,115,117,119,121,123,125,-1,127,-1,-1,-1,-1,129,-1,-1,131,133,-1,135,-1,137,139,141,143,145,147,149,151,153,155,157,159,161,163,165,167,169,171,173,175,177,179,181,183,185,187,189,191,193,195,197,199,201,203,205,207,209,-1,-1,211,213,215,217,219,-1,-1,-1,-1,-1,-1,-1,-1,-1,-1,-1,-1,-1,-1,-1,-1,-1,-1,-1,-1,-1,-1,-1,-1,-1,-1,-1,-1,-1,-1,-1,-1,-1,-1,-1,-1,-1,-1,-1,-1,-1,-1,-1,-1,-1,-1,-1,-1,-1,-1,-1,-1,-1,-1,-1,-1,-1,-1,-1,-1,-1,-1,-1,-1,-1,-1,-1,-1,-1,-1,-1,-1,-1,-1,-1,-1,-1,-1,-1,-1,-1,-1,-1,-1,-1,-1,-1,-1,-1,-1,-1,-1,-1,-1,-1,-1,-1,-1,-1,-1],"loss_changes":[1.41921E9,1.8690336E8,1.8666432E8,2.04416E7,2.3106992E7,2.4586768E7,2.4069696E7,2.473024E6,2.616704E6,2.1998E6,2.03073E6,2.3421895E6,3.399624E6,2.52768E6,3.780992E6,4.168E5,2.52768E5,2.4048E5,3.64048E5,4.06096E5,2.97396E5,2.86838E5,3.5674E5,3.4897644E5,2.99479E5,4.16596E5,3.05072E5,2.80384E5,2.97968E5,6.1008E5,2.97248E5,7.3552E4,8.1616E4,3.66E4,7.1264E4,3.6436E4,5.0544E4,8.1156E4,1.0382E5,9.006E4,1.27716E5,8.8878E4,9.7648E4,9.23705E4,7.824575E4,9.150825E4,1.00400625E5,1.2869045E5,9.9598375E4,6.35595E4,9.0369E4,9.9875E4,1.07522E5,8.5226E4,9.616E4,6.2876E4,5.5656E4,8.2008E4,7.6308E4,8.4672E4,4.6368E4,2.2808E4,1.008E4,0E0,1.9448E4,0E0,0E0,0E0,0E0,1.3256E4,0E0,0E0,2.724E3,2.716E3,0E0,3.856E3,0E0,8.446E3,1.4092E4,6.059E3,2.03E3,1.8556E4,1.9504E4,1.187E4,1.0537E4,1.27165E4,1.6058E4,1.808175E4,2.0943E4,1.1408125E4,9.375E3,1.580775E4,3.3429137E4,4.235625E4,1.1014469E4,1.931486E4,1.6977148E4,1.47315625E4,2.4371594E4,2.47925E3,1.4356E4,1.75655E4,1.229475E4,8.9735E3,1.5892E4,1.2539E4,1.8703E4,1.0067E4,4.2935E3,1.1816E4,2.197E4,4.266E3,9.558E3,2.666E3,0E0,0E0,2.912E3,1.162E4,5.68E2,1.644E4,1.4508E4,0E0,0E0,0E0,0E0,0E0,0E0,0E0,0E0,0E0,0E0,0E0,0E0,0E0,0E0,0E0,0E0,0E0,0E0,0E0,0E0,0E0,0E0,0E0,0E0,0E0,0E0,0E0,0E0,0E0,0E0,0E0,0E0,0E0,0E0,0E0,0E0,0E0,0E0,0E0,0E0,0E0,0E0,0E0,0E0,0E0,0E0,0E0,0E0,0E0,0E0,0E0,0E0,0E0,0E0,0E0,0E0,0E0,0E0,0E0,0E0,0E0,0E0,0E0,0E0,0E0,0E0,0E0,0E0,0E0,0E0,0E0,0E0,0E0,0E0,0E0,0E0,0E0,0E0,0E0,0E0,0E0,0E0,0E0,0E0,0E0,0E0,0E0,0E0,0E0,0E0,0E0,0E0,0E0,0E0,0E0,0E0,0E0,0E0,0E0,0E0],"parents":[2147483647,0,0,1,1,2,2,3,3,4,4,5,5,6,6,7,7,8,8,9,9,10,10,11,11,12,12,13,13,14,14,15,15,16,16,17,17,18,18,19,19,20,20,21,21,22,22,23,23,24,24,25,25,26,26,27,27,28,28,29,29,30,30,31,31,32,32,33,33,34,34,35,35,36,36,37,37,38,38,39,39,40,40,41,41,42,42,43,43,44,44,45,45,46,46,47,47,48,48,49,49,50,50,51,51,52,52,53,53,54,54,55,55,56,56,57,57,58,58,59,59,60,60,61,61,62,62,64,64,69,69,72,72,73,73,75,75,77,77,78,78,79,79,80,80,81,81,82,82,83,83,84,84,85,85,86,86,87,87,88,88,89,89,90,90,91,91,92,92,93,93,94,94,95,95,96,96,97,97,98,98,99,99,100,100,101,101,102,102,103,103,104,104,105,105,106,106,107,107,108,108,109,109,110,110,111,111,112,112,113,113,116,116,117,117,118,118,119,119,120,120],"right_children":[2,4,6,8,10,12,14,16,18,20,22,24,26,28,30,32,34,36,38,40,42,44,46,48,50,52,54,56,58,60,62,64,66,68,70,72,74,76,78,80,82,84,86,88,90,92,94,96,98,100,102,104,106,108,110,112,114,116,118,120,122,124,126,-1,128,-1,-1,-1,-1,130,-1,-1,132,134,-1,136,-1,138,140,142,144,146,148,150,152,154,156,158,160,162,164,166,168,170,172,174,176,178,180,182,184,186,188,190,192,194,196,198,200,202,204,206,208,210,-1,-1,212,214,216,218,220,-1,-1,-1,-1,-1,-1,-1,-1,-1,-1,-1,-1,-1,-1,-1,-1,-1,-1,-1,-1,-1,-1,-1,-1,-1,-1,-1,-1,-1,-1,-1,-1,-1,-1,-1,-1,-1,-1,-1,-1,-1,-1,-1,-1,-1,-1,-1,-1,-1,-1,-1,-1,-1,-1,-1,-1,-1,-1,-1,-1,-1,-1,-1,-1,-1,-1,-1,-1,-1,-1,-1,-1,-1,-1,-1,-1,-1,-1,-1,-1,-1,-1,-1,-1,-1,-1,-1,-1,-1,-1,-1,-1,-1,-1,-1,-1,-1,-1,-1,-1],"split_conditions":[2.72E2,1.63E2,3.81E2,1.09E2,2.19E2,3.24E2,4.32E2,8.5E1,1.35E2,1.91E2,2.47E2,2.99E2,3.54E2,4.07E2,4.7E2,6.9E1,1.4366667E1,1.3333333E1,1.47E2,1.75E2,2.07E2,2.34E2,6.8333335E0,2.85E2,4.4E0,3.38E2,3.65E2,3.95E2,1.3666667E0,4.51E2,4.85E2,5.8E1,1.6E1,9.7E1,9.9E1,1.23E2,1.2E2,1.2666667E1,1.17E1,1.1166667E1,1.04E1,9.633333E0,8.9E0,8.3E0,7.633333E0,2.62E2,2.59E2,6E0,5.2E0,3.11E2,3.1E2,3.7333333E0,3.2666667E0,3.1E0,2.3666666E0,1.9333333E0,1.8333334E0,4.18E2,4.2E2,9.6666664E-1,8E-1,3.6666667E-1,4.96E2,-9.78955E0,1.61E1,-8.748535E0,-9.225557E0,-7.999275E0,-7.5478053E0,1.54E1,-7.9951057E0,-6.872417E0,1.22E1,1.4266666E1,-7.020588E0,1.17E1,-6.3909197E0,1.53E2,1.2933333E1,1.69E2,1.2E1,9.433333E0,1.1266666E1,8.833333E0,1.96E2,2.15E2,9.866667E0,2.25E2,9.166667E0,6.8333335E0,2.39E2,2.55E2,5.733333E0,7.7E0,2.64E2,5.3333335E0,2.78E2,4.3333335E0,6.3333335E0,3.8666666E0,3.18E2,5.0666666E0,4.866667E0,3.32E2,4.5333333E0,3.5E2,3.45E2,2.3666666E0,3.6E0,3.73E2,3.75E2,3.9E2,2.5E0,1.4E0,5.3817005E0,6.448147E0,4.25E2,1.9E0,1.9E0,4.45E2,4.39E2,8.362952E0,8.020234E0,9.2623415E0,8.845375E0,9.449407E0,9.812841E0,-9.126149E0,-9.550597E0,-8.297415E0,-8.652777E0,-6.2589235E0,-6.590801E0,-7.2517104E0,-7.572572E0,-5.6654525E0,-5.977253E0,-5.3722434E0,-5.0433035E0,-5.5421124E0,-5.9246926E0,-4.733089E0,-4.4524665E0,-4.9770846E0,-5.258317E0,-3.6988442E0,-4.0012546E0,-4.251622E0,-4.5966477E0,-3.165432E0,-3.4196057E0,-3.8951986E0,-3.6328208E0,-2.7511756E0,-2.4400055E0,-3.0251095E0,-3.3577385E0,-2.083951E0,-1.7891712E0,-2.205953E0,-2.5497E0,-1.1783873E0,-1.4164613E0,-1.8579142E0,-1.6392266E0,-8.091987E-1,-5.537929E-1,9.864433E-3,-3.8145408E-1,-1.0692859E0,-1.4665325E0,-9.1946787E-1,-6.6297823E-1,4.9632126E-1,2.1844864E-1,-2.8754285E-1,-7.900889E-3,1.1674707E0,8.8532573E-1,6.177139E-1,2.9244325E-1,1.730374E0,1.5690777E0,1.943539E0,2.2127721E0,1.2831103E0,1.0246079E0,1.7175591E0,1.4624218E0,2.6414747E0,2.8783376E0,2.3854508E0,2.1043134E0,3.3189113E0,3.6087322E0,2.7887096E0,3.0824068E0,4.1661124E0,3.9025567E0,3.6139653E0,3.3529058E0,4.485603E0,4.7658496E0,4.113572E0,4.435598E0,5.150037E0,5.4342628E0,4.9906096E0,4.7445383E0,5.9439807E0,5.6643977E0,6.8019233E0,7.0813575E0,6.1070514E0,5.77048E0,6.58646E0,6.1754684E0,7.5850906E0,7.922725E0,7.102582E0,7.452408E0],"split_indices":[1,1,1,1,1,1,1,1,1,1,1,1,1,1,1,1,8,8,1,1,1,1,8,1,8,1,1,1,8,1,1,1,8,1,1,1,1,8,8,8,8,8,8,8,8,1,1,8,8,1,1,8,8,8,8,8,8,1,1,8,8,8,1,0,8,0,0,0,0,8,0,0,8,8,0,8,0,1,8,1,8,8,8,8,1,1,8,1,8,8,1,1,8,8,1,8,1,8,8,8,1,8,8,1,8,1,1,8,8,1,1,1,8,8,0,0,1,8,8,1,1,0,0,0,0,0,0,0,0,0,0,0,0,0,0,0,0,0,0,0,0,0,0,0,0,0,0,0,0,0,0,0,0,0,0,0,0,0,0,0,0,0,0,0,0,0,0,0,0,0,0,0,0,0,0,0,0,0,0,0,0,0,0,0,0,0,0,0,0,0,0,0,0,0,0,0,0,0,0,0,0,0,0,0,0,0,0,0,0,0,0,0,0,0,0,0,0,0,0,0,0],"split_type":[0,0,0,0,0,0,0,0,0,0,0,0,0,0,0,0,0,0,0,0,0,0,0,0,0,0,0,0,0,0,0,0,0,0,0,0,0,0,0,0,0,0,0,0,0,0,0,0,0,0,0,0,0,0,0,0,0,0,0,0,0,0,0,0,0,0,0,0,0,0,0,0,0,0,0,0,0,0,0,0,0,0,0,0,0,0,0,0,0,0,0,0,0,0,0,0,0,0,0,0,0,0,0,0,0,0,0,0,0,0,0,0,0,0,0,0,0,0,0,0,0,0,0,0,0,0,0,0,0,0,0,0,0,0,0,0,0,0,0,0,0,0,0,0,0,0,0,0,0,0,0,0,0,0,0,0,0,0,0,0,0,0,0,0,0,0,0,0,0,0,0,0,0,0,0,0,0,0,0,0,0,0,0,0,0,0,0,0,0,0,0,0,0,0,0,0,0,0,0,0,0,0,0,0,0,0,0,0,0,0,0,0,0,0,0,0,0,0,0,0,0],"sum_hessian":[1.464E5,7.0784E4,7.5616E4,3.5386E4,3.5398E4,3.7677E4,3.7939E4,1.9135E4,1.6251E4,1.7166E4,1.8232E4,1.8422E4,1.9255E4,1.7123E4,2.0816E4,1.1125E4,8.01E3,8.268E3,7.983E3,8.609E3,8.557E3,9.008E3,9.224E3,9.768E3,8.654E3,9.592E3,9.663E3,9.115E3,8.008E3,1.3317E4,7.499E3,5.721E3,5.404E3,3.139E3,4.871E3,3.635E3,4.633E3,3.442E3,4.541E3,3.446E3,5.163E3,5.024E3,3.533E3,4.586E3,4.422E3,4.779E3,4.445E3,4.699E3,5.069E3,3.598E3,5.056E3,4.551E3,5.041E3,3.829E3,5.834E3,5.149E3,3.966E3,4.338E3,3.67E3,6.82E3,6.497E3,3.929E3,3.57E3,2.698E3,3.023E3,3.456E3,1.948E3,1.199E3,1.94E3,3.324E3,1.547E3,1.632E3,2.003E3,2.396E3,2.237E3,1.905E3,1.537E3,2.159E3,2.382E3,1.866E3,1.58E3,2.79E3,2.373E3,2.513E3,2.511E3,1.666E3,1.867E3,2.538E3,2.048E3,2.143E3,2.279E3,2.473E3,2.306E3,2.723E3,1.722E3,2.517E3,2.182E3,2.193E3,2.876E3,1.381E3,2.217E3,2.835E3,2.221E3,2.146E3,2.405E3,2.475E3,2.566E3,2.458E3,1.371E3,2.633E3,3.201E3,1.976E3,3.173E3,2.069E3,1.897E3,1.466E3,2.872E3,2.332E3,1.338E3,3.774E3,3.046E3,3.882E3,2.615E3,1.094E3,2.835E3,1.827E3,1.743E3,1.449E3,1.574E3,1.648E3,1.676E3,6.61E2,1.342E3,1.212E3,1.184E3,7.36E2,1.169E3,6.12E2,1.547E3,1.764E3,6.18E2,8.04E2,1.062E3,8.26E2,7.54E2,1.125E3,1.665E3,1.416E3,9.57E2,1.206E3,1.307E3,9.25E2,1.586E3,1.003E3,6.63E2,1.095E3,7.72E2,8.36E2,1.702E3,1.241E3,8.07E2,9.92E2,1.151E3,9.39E2,1.34E3,1.114E3,1.359E3,8.86E2,1.42E3,1.354E3,1.369E3,7.87E2,9.35E2,1.34E3,1.177E3,1.171E3,1.011E3,6.93E2,1.5E3,2.075E3,8.01E2,6.17E2,7.64E2,1.107E3,1.11E3,1.111E3,1.724E3,7.89E2,1.432E3,1.139E3,1.007E3,1.486E3,9.19E2,1.755E3,7.2E2,1.304E3,1.262E3,1.001E3,1.457E3,7.75E2,5.96E2,1.169E3,1.464E3,2.165E3,1.036E3,1.183E3,7.93E2,1.724E3,1.449E3,9.58E2,1.111E3,1.307E3,1.565E3,1.34E3,9.92E2,9.92E2,3.46E2,2.37E3,1.404E3,1.228E3,1.818E3],"tree_param":{"num_deleted":"0","num_feature":"9","num_nodes":"221","size_leaf_vector":"1"}},{"base_weights":[-1.9528302E-4,-9.766348E1,8.958982E1,-1.4710435E2,-5.0390316E1,4.1372314E1,1.3667914E2,-1.6772395E2,-1.2383279E2,-7.5293625E1,-2.5969038E1,1.7479794E1,6.603088E1,1.0979952E2,1.5884065E2,-1.7793271E2,-1.574663E2,-1.3471716E2,-1.11131355E2,-8.704063E1,-6.45528E1,-3.6159264E1,-1.6149963E1,5.8469024E0,2.8096153E1,5.342177E1,7.793449E1,9.952435E1,1.229476E2,1.4921707E2,1.7636263E2,-1.723188E2,-1.8304265E2,-1.6359724E2,-1.5173889E2,-1.2996756E2,-1.414384E2,-1.05602776E2,-1.1835861E2,-9.418132E1,-8.061946E1,-6.9617165E1,-5.8447468E1,-4.25079E1,-3.1164045E1,-1.139241E1,-2.3161802E1,1.1468283E1,1.5497245E-1,2.2642082E1,3.452153E1,4.7568066E1,5.9373566E1,7.145521E1,8.2772545E1,9.409645E1,1.054713E2,1.2841339E2,1.1667708E2,1.4242398E2,1.559478E2,1.6917451E2,1.819671E2,-9.004596E0,-8.488376E0,-9.380332E0,-8.989951E0,-7.9463744E0,-8.399127E0,-7.256948E0,-1.5543515E2,-1.3427104E2,-1.26535965E2,-7.268019E0,-6.867496E0,-1.1114881E2,-1.0138152E2,-1.2135033E2,-5.574071E0,-8.956305E1,-9.897593E1,-7.661055E1,-8.648267E1,-6.604466E1,-7.492835E1,-5.3701572E1,-6.330248E1,-3.952449E1,-4.923806E1,-2.6759758E1,-3.5014343E1,-1.4862494E1,-6.670764E0,-2.6922987E1,-1.7879755E1,6.6168327E0,1.47907915E1,-3.8130493E0,5.003408E0,2.8403053E1,1.9098177E1,3.943776E1,2.9773111E1,5.132902E1,4.213181E1,6.4904976E1,5.5771454E1,7.5902954E1,6.658524E1,8.5777016E1,7.726815E1,9.7189186E1,9.030358E1,1.0959524E2,1.01248604E2,6.125959E0,6.5836077E0,1.1272718E2,1.2184965E2,1.4516666E2,1.3713284E2,1.5847766E2,1.5170038E2,8.749751E0,8.349614E0,8.870414E0,9.262607E0,-7.633783E0,-8.020463E0,-6.541462E0,-6.8316154E0,-6.1563296E0,-6.484752E0,-5.3524714E0,-5.6392817E0,-4.8040442E0,-5.1766915E0,-5.926869E0,-6.2656727E0,-4.600572E0,-4.343592E0,-4.836559E0,-5.0719886E0,-3.6308792E0,-3.9324422E0,-4.189565E0,-4.5551186E0,-3.16514E0,-3.4195411E0,-3.8868473E0,-3.5965679E0,-2.4254253E0,-2.7783844E0,-3.265665E0,-2.9743478E0,-2.1620138E0,-1.8409655E0,-2.5504057E0,-2.2646244E0,-1.5071908E0,-1.2392585E0,-1.8666252E0,-1.6268806E0,-5.151451E-1,-8.292622E-1,-1.492431E-1,-5.064976E-1,-1.2104521E0,-1.476808E0,-8.0633587E-1,-1.102051E0,4.5826218E-1,2.4862225E-1,8.664929E-1,5.826292E-1,-7.0312254E-2,-4.075098E-1,1.08313106E-1,3.8972118E-1,1.1979027E0,1.4946605E0,8.3181506E-1,1.0828875E0,1.8783683E0,2.169597E0,1.6432272E0,1.3893511E0,2.7041833E0,2.4400775E0,2.1827483E0,1.9480013E0,3.143129E0,3.3447075E0,2.8694065E0,2.5474193E0,3.605241E0,3.8895643E0,3.4638183E0,3.178354E0,4.4334E0,4.1561847E0,3.9235528E0,3.640725E0,4.734276E0,4.991321E0,4.409557E0,4.62605E0,5.6309834E0,5.3494925E0,4.862449E0,5.1650143E0,5.7675066E0,5.462669E0,6.1950665E0,5.811544E0,6.987539E0,7.3482347E0,6.6674805E0,7.0201173E0,7.738855E0,8.017594E0,7.4391503E0,7.760036E0],"categories":[],"categories_nodes":[],"categories_segments":[],"categories_sizes":[],"default_left":[0,0,0,0,0,0,0,0,0,0,0,0,0,0,0,0,0,0,0,0,0,0,0,0,0,0,0,0,0,0,0,0,0,0,0,0,0,0,0,0,0,0,0,0,0,0,0,0,0,0,0,0,0,0,0,0,0,0,0,0,0,0,0,0,0,0,0,0,0,0,0,0,0,0,0,0,0,0,0,0,0,0,0,0,0,0,0,0,0,0,0,0,0,0,0,0,0,0,0,0,0,0,0,0,0,0,0,0,0,0,0,0,0,0,0,0,0,0,0,0,0,0,0,0,0,0,0,0,0,0,0,0,0,0,0,0,0,0,0,0,0,0,0,0,0,0,0,0,0,0,0,0,0,0,0,0,0,0,0,0,0,0,0,0,0,0,0,0,0,0,0,0,0,0,0,0,0,0,0,0,0,0,0,0,0,0,0,0,0,0,0,0,0,0,0,0,0,0,0,0,0,0,0,0,0,0,0,0,0,0,0,0,0,0,0,0,0,0,0,0,0,0,0],"id":3,"left_children":[1,3,5,7,9,11,13,15,17,19,21,23,25,27,29,31,33,35,37,39,41,43,45,47,49,51,53,55,57,59,61,63,65,67,69,71,73,75,77,79,81,83,85,87,89,91,93,95,97,99,101,103,105,107,109,111,113,115,117,119,121,123,125,-1,-1,-1,-1,-1,-1,-1,127,129,131,-1,-1,133,135,137,-1,139,141,143,145,147,149,151,153,155,157,159,161,163,165,167,169,171,173,175,177,179,181,183,185,187,189,191,193,195,197,199,201,203,205,207,209,-1,-1,211,213,215,217,219,221,-1,-1,-1,-1,-1,-1,-1,-1,-1,-1,-1,-1,-1,-1,-1,-1,-1,-1,-1,-1,-1,-1,-1,-1,-1,-1,-1,-1,-1,-1,-1,-1,-1,-1,-1,-1,-1,-1,-1,-1,-1,-1,-1,-1,-1,-1,-1,-1,-1,-1,-1,-1,-1,-1,-1,-1,-1,-1,-1,-1,-1,-1,-1,-1,-1,-1,-1,-1,-1,-1,-1,-1,-1,-1,-1,-1,-1,-1,-1,-1,-1,-1,-1,-1,-1,-1,-1,-1,-1,-1,-1,-1,-1,-1,-1,-1,-1,-1,-1,-1],"loss_changes":[1.280967E9,1.6370362E8,1.7336518E8,1.6407872E7,2.1776032E7,2.2226492E7,2.2994176E7,1.87264E6,2.209152E6,2.231288E6,1.808575E6,2.3664465E6,2.78248E6,2.346576E6,3.543648E6,2.29184E5,2.93376E5,2.58032E5,2.84376E5,3.8054E5,2.824E5,2.80032E5,3.069745E5,2.9260625E5,3.503285E5,3.11398E5,2.93384E5,3.06616E5,2.47376E5,6.0288E5,2.7136E5,5.5648E4,3.6464E4,6.2664E4,9.2072E4,5.8128E4,3.7344E4,8.7504E4,5.256E4,7.9752E4,9.8302E4,9.1042E4,9.3536E4,7.64415E4,8.33265E4,8.983544E4,7.346275E4,7.4065625E4,8.745896E4,1.1015475E5,1.061635E5,9.0906E4,8.5404E4,8.3516E4,8.3672E4,5.1472E4,7.0248E4,6.2232E4,5.9324E4,7.9008E4,4.9648E4,1.2696E4,3.0032E4,0E0,0E0,0E0,0E0,0E0,0E0,0E0,1.6664E4,3.28E2,1.4692E4,0E0,0E0,9.2E1,1.7512E4,9.972E3,0E0,5.508E3,9.94E2,1.5938E4,1.4808E4,1.5181E4,1.1471E4,1.7985E4,1.2027E4,2.56485E4,6.03525E3,1.476875E4,1.398875E4,2.4674562E4,2.9639547E4,1.468875E4,1.09588125E4,7.7991797E3,2.1551E4,2.60852E4,1.6184402E4,1.2948625E4,2.081225E4,1.505475E4,1.34725E4,1.6061E4,7.319E3,2.9285E3,1.823E4,9.668E3,1.1515E4,1.9654E4,4.668E3,9.138E3,2.712E3,6.476E3,8.998E3,0E0,0E0,5.994E3,3.306E3,2.3016E4,1.028E4,4.832E3,3.284E3,0E0,0E0,0E0,0E0,0E0,0E0,0E0,0E0,0E0,0E0,0E0,0E0,0E0,0E0,0E0,0E0,0E0,0E0,0E0,0E0,0E0,0E0,0E0,0E0,0E0,0E0,0E0,0E0,0E0,0E0,0E0,0E0,0E0,0E0,0E0,0E0,0E0,0E0,0E0,0E0,0E0,0E0,0E0,0E0,0E0,0E0,0E0,0E0,0E0,0E0,0E0,0E0,0E0,0E0,0E0,0E0,0E0,0E0,0E0,0E0,0E0,0E0,0E0,0E0,0E0,0E0,0E0,0E0,0E0,0E0,0E0,0E0,0E0,0E0,0E0,0E0,0E0,0E0,0E0,0E0,0E0,0E0,0E0,0E0,0E0,0E0,0E0,0E0,0E0,0E0,0E0,0E0,0E0,0E0,0E0,0E0,0E0,0E0,0E0,0E0],"parents":[2147483647,0,0,1,1,2,2,3,3,4,4,5,5,6,6,7,7,8,8,9,9,10,10,11,11,12,12,13,13,14,14,15,15,16,16,17,17,18,18,19,19,20,20,21,21,22,22,23,23,24,24,25,25,26,26,27,27,28,28,29,29,30,30,31,31,32,32,33,33,34,34,35,35,36,36,37,37,38,38,39,39,40,40,41,41,42,42,43,43,44,44,45,45,46,46,47,47,48,48,49,49,50,50,51,51,52,52,53,53,54,54,55,55,56,56,57,57,58,58,59,59,60,60,61,61,62,62,70,70,71,71,72,72,75,75,76,76,77,77,79,79,80,80,81,81,82,82,83,83,84,84,85,85,86,86,87,87,88,88,89,89,90,90,91,91,92,92,93,93,94,94,95,95,96,96,97,97,98,98,99,99,100,100,101,101,102,102,103,103,104,104,105,105,106,106,107,107,108,108,109,109,110,110,111,111,112,112,113,113,114,114,117,117,118,118,119,119,120,120,121,121,122,122],"right_children":[2,4,6,8,10,12,14,16,18,20,22,24,26,28,30,32,34,36,38,40,42,44,46,48,50,52,54,56,58,60,62,64,66,68,70,72,74,76,78,80,82,84,86,88,90,92,94,96,98,100,102,104,106,108,110,112,114,116,118,120,122,124,126,-1,-1,-1,-1,-1,-1,-1,128,130,132,-1,-1,134,136,138,-1,140,142,144,146,148,150,152,154,156,158,160,162,164,166,168,170,172,174,176,178,180,182,184,186,188,190,192,194,196,198,200,202,204,206,208,210,-1,-1,212,214,216,218,220,222,-1,-1,-1,-1,-1,-1,-1,-1,-1,-1,-1,-1,-1,-1,-1,-1,-1,-1,-1,-1,-1,-1,-1,-1,-1,-1,-1,-1,-1,-1,-1,-1,-1,-1,-1,-1,-1,-1,-1,-1,-1,-1,-1,-1,-1,-1,-1,-1,-1,-1,-1,-1,-1,-1,-1,-1,-1,-1,-1,-1,-1,-1,-1,-1,-1,-1,-1,-1,-1,-1,-1,-1,-1,-1,-1,-1,-1,-1,-1,-1,-1,-1,-1,-1,-1,-1,-1,-1,-1,-1,-1,-1,-1,-1,-1,-1,-1,-1,-1,-1],"split_conditions":[2.7E2,1.59E2,3.79E2,1.06E2,2.17E2,3.24E2,4.31E2,7.9E1,1.33E2,1.87E2,2.45E2,2.95E2,3.52E2,4.07E2,4.7E2,1.61E1,9.2E1,1.3866667E1,1.2466666E1,1.73E2,2.03E2,2.3E2,7.1666665E0,5.733333E0,3.1E2,3.38E2,3.64E2,3.93E2,1.3666667E0,4.5E2,4.82E2,6.1E1,5.8E1,1.52E1,1.42E1,1.2E2,1.16E2,1.47E2,1.47E2,1.1266666E1,1.0666667E1,1.0066667E1,9.166667E0,8.833333E0,7.7E0,2.61E2,2.56E2,2.83E2,2.81E2,4.6666665E0,4.3333335E0,4E0,3.1E0,2.9E0,2.7333333E0,2.2333333E0,1.8333334E0,4.18E2,4.18E2,1.1E0,8.333333E-1,3.6666667E-1,4.91E2,-9.004596E0,-8.488376E0,-9.380332E0,-8.989951E0,-7.9463744E0,-8.399127E0,-7.256948E0,1.55E1,1.2933333E1,1.2833333E1,-7.268019E0,-6.867496E0,1.1366667E1,1.0966666E1,1.3433333E1,-5.574071E0,1.67E2,1.21E1,9.533334E0,1.16E1,9.166667E0,1.94E2,7.9333334E0,2.11E2,2.23E2,2.25E2,2.37E2,2.37E2,6E0,6.133333E0,7.9333334E0,8.066667E0,5E0,5.0666666E0,6.8333335E0,2.87E2,3E2,3.02E2,3.2E2,4.866667E0,3.3333333E0,4.8E0,3.46E2,4.133333E0,3.57E2,3.4333334E0,2.1333334E0,3.5E0,3.87E2,3.86E2,1.4E0,3.97E2,6.125959E0,6.5836077E0,1.9E0,1.9E0,4.37E2,4.39E2,4.57E2,4.59E2,8.749751E0,8.349614E0,8.870414E0,9.262607E0,-7.633783E0,-8.020463E0,-6.541462E0,-6.8316154E0,-6.1563296E0,-6.484752E0,-5.3524714E0,-5.6392817E0,-4.8040442E0,-5.1766915E0,-5.926869E0,-6.2656727E0,-4.600572E0,-4.343592E0,-4.836559E0,-5.0719886E0,-3.6308792E0,-3.9324422E0,-4.189565E0,-4.5551186E0,-3.16514E0,-3.4195411E0,-3.8868473E0,-3.5965679E0,-2.4254253E0,-2.7783844E0,-3.265665E0,-2.9743478E0,-2.1620138E0,-1.8409655E0,-2.5504057E0,-2.2646244E0,-1.5071908E0,-1.2392585E0,-1.8666252E0,-1.6268806E0,-5.151451E-1,-8.292622E-1,-1.492431E-1,-5.064976E-1,-1.2104521E0,-1.476808E0,-8.0633587E-1,-1.102051E0,4.5826218E-1,2.4862225E-1,8.664929E-1,5.826292E-1,-7.0312254E-2,-4.075098E-1,1.08313106E-1,3.8972118E-1,1.1979027E0,1.4946605E0,8.3181506E-1,1.0828875E0,1.8783683E0,2.169597E0,1.6432272E0,1.3893511E0,2.7041833E0,2.4400775E0,2.1827483E0,1.9480013E0,3.143129E0,3.3447075E0,2.8694065E0,2.5474193E0,3.605241E0,3.8895643E0,3.4638183E0,3.178354E0,4.4334E0,4.1561847E0,3.9235528E0,3.640725E0,4.734276E0,4.991321E0,4.409557E0,4.62605E0,5.6309834E0,5.3494925E0,4.862449E0,5.1650143E0,5.7675066E0,5.462669E0,6.1950665E0,5.811544E0,6.987539E0,7.3482347E0,6.6674805E0,7.0201173E0,7.738855E0,8.017594E0,7.4391503E0,7.760036E0],"split_indices":[1,1,1,1,1,1,1,1,1,1,1,1,1,1,1,8,1,8,8,1,1,1,8,8,1,1,1,1,8,1,1,1,1,8,8,1,1,1,1,8,8,8,8,8,8,1,1,1,1,8,8,8,8,8,8,8,8,1,1,8,8,8,1,0,0,0,0,0,0,0,8,8,8,0,0,8,8,8,0,1,8,8,8,8,1,8,1,1,1,1,1,8,8,8,8,8,8,8,1,1,1,1,8,8,8,1,8,1,8,8,8,1,1,8,1,0,0,8,8,1,1,1,1,0,0,0,0,0,0,0,0,0,0,0,0,0,0,0,0,0,0,0,0,0,0,0,0,0,0,0,0,0,0,0,0,0,0,0,0,0,0,0,0,0,0,0,0,0,0,0,0,0,0,0,0,0,0,0,0,0,0,0,0,0,0,0,0,0,0,0,0,0,0,0,0,0,0,0,0,0,0,0,0,0,0,0,0,0,0,0,0,0,0,0,0,0,0,0,0,0,0,0,0],"split_type":[0,0,0,0,0,0,0,0,0,0,0,0,0,0,0,0,0,0,0,0,0,0,0,0,0,0,0,0,0,0,0,0,0,0,0,0,0,0,0,0,0,0,0,0,0,0,0,0,0,0,0,0,0,0,0,0,0,0,0,0,0,0,0,0,0,0,0,0,0,0,0,0,0,0,0,0,0,0,0,0,0,0,0,0,0,0,0,0,0,0,0,0,0,0,0,0,0,0,0,0,0,0,0,0,0,0,0,0,0,0,0,0,0,0,0,0,0,0,0,0,0,0,0,0,0,0,0,0,0,0,0,0,0,0,0,0,0,0,0,0,0,0,0,0,0,0,0,0,0,0,0,0,0,0,0,0,0,0,0,0,0,0,0,0,0,0,0,0,0,0,0,0,0,0,0,0,0,0,0,0,0,0,0,0,0,0,0,0,0,0,0,0,0,0,0,0,0,0,0,0,0,0,0,0,0,0,0,0,0,0,0,0,0,0,0,0,0,0,0,0,0,0,0],"sum_hessian":[1.464E5,7.0044E4,7.6356E4,3.4236E4,3.5808E4,3.7727E4,3.8629E4,1.8149E4,1.6087E4,1.7728E4,1.808E4,1.9162E4,1.8565E4,1.7459E4,2.117E4,9.088E3,9.061E3,8.658E3,7.429E3,8.464E3,9.264E3,8.871E3,9.209E3,9.144E3,1.0018E4,9.018E3,9.547E3,9.805E3,7.654E3,1.3671E4,7.499E3,4.347E3,4.741E3,4.363E3,4.698E3,5.085E3,3.573E3,4.218E3,3.211E3,4.001E3,4.463E3,5.058E3,4.206E3,3.903E3,4.968E3,5.488E3,3.721E3,4.6E3,4.544E3,5.421E3,4.597E3,4.551E3,4.467E3,4.088E3,5.459E3,5.135E3,4.67E3,4.079E3,3.575E3,6.815E3,6.856E3,3.299E3,4.2E3,1.057E3,3.29E3,1.946E3,2.795E3,2.131E3,2.232E3,1.701E3,2.997E3,2.239E3,2.846E3,1.806E3,1.767E3,1.812E3,2.406E3,2.226E3,9.85E2,2.048E3,1.953E3,2.659E3,1.804E3,3.032E3,2.026E3,2.133E3,2.073E3,2.709E3,1.194E3,2.321E3,2.647E3,3.162E3,2.326E3,2.171E3,1.55E3,1.871E3,2.729E3,2.499E3,2.045E3,2.062E3,3.359E3,2.255E3,2.342E3,2.685E3,1.866E3,1.755E3,2.712E3,2.129E3,1.959E3,3.522E3,1.937E3,2.815E3,2.32E3,2.35E3,2.32E3,1.466E3,2.613E3,2.04E3,1.535E3,4.471E3,2.344E3,4.274E3,2.582E3,8.78E2,2.421E3,1.782E3,2.418E3,1.948E3,1.049E3,9.34E2,1.305E3,1.388E3,1.458E3,5.36E2,1.276E3,7.08E2,1.698E3,1.32E3,9.06E2,1.055E3,9.93E2,1.043E3,9.1E2,9.11E2,1.748E3,1.152E3,6.52E2,1.411E3,1.621E3,1.033E3,9.93E2,5.71E2,1.562E3,1.347E3,7.26E2,1.135E3,1.574E3,8.16E2,3.78E2,8.5E2,1.471E3,1.36E3,1.287E3,8.69E2,2.293E3,1.127E3,1.199E3,1.07E3,1.101E3,1.094E3,4.56E2,7.32E2,1.139E3,1.506E3,1.223E3,1.608E3,8.91E2,1.015E3,1.03E3,5.22E2,1.54E3,1.716E3,1.643E3,1.538E3,7.17E2,9.1E2,1.432E3,1.275E3,1.41E3,1.252E3,6.14E2,8.82E2,8.73E2,2.023E3,6.89E2,7.2E2,1.409E3,1.024E3,9.35E2,1.67E3,1.852E3,1.512E3,4.25E2,1.463E3,1.352E3,1.209E3,1.111E3,1.068E3,1.282E3,8.03E2,1.517E3,1.144E3,8.96E2,1.109E3,4.26E2,1.134E3,3.337E3,1.106E3,1.238E3,1.465E3,2.809E3,1.432E3,1.15E3],"tree_param":{"num_deleted":"0","num_feature":"9","num_nodes":"223","size_leaf_vector":"1"}},{"base_weights":[-1.9322331E-4,-9.139179E1,8.6411995E1,-1.382354E2,-4.5040714E1,4.1409565E1,1.3066725E2,-1.5823795E2,-1.14674805E2,-6.923997E1,-2.270222E1,1.7822187E1,6.3526096E1,1.055905E2,1.5128902E2,-1.6699785E2,-1.4605206E2,-1.25952E2,-1.0298069E2,-7.944029E1,-5.896957E1,-3.200427E1,-1.2462675E1,8.247324E0,2.822249E1,5.147344E1,7.548363E1,9.528353E1,1.173089E2,1.426551E2,1.6859612E2,-1.7260408E2,-1.6103194E2,-1.3937491E2,-1.503255E2,-1.2178929E2,-1.3212674E2,-1.08406975E2,-9.57961E1,-8.709684E1,-7.4314125E1,-6.28018E1,-5.1424026E1,-3.740795E1,-2.6544977E1,-7.137951E0,-1.822006E1,1.29308195E1,2.387058E0,3.4540775E1,2.372027E1,4.559001E1,5.755821E1,6.997047E1,8.028233E1,9.142855E1,1.0213429E2,1.22498184E2,1.1114339E2,1.366348E2,1.4978271E2,1.6381969E2,8.74848E0,-1.6906563E2,-8.859224E0,-1.5831773E2,-8.371951E0,-7.2184663E0,-6.810769E0,-1.536833E2,-7.264843E0,-1.2545761E2,-1.1842533E2,-6.75406E0,-6.4158044E0,-1.04158325E2,-1.14564476E2,-4.550526E0,-9.96235E1,-8.233343E1,-9.202906E1,-7.0529564E1,-7.995956E1,-5.8482685E1,-6.672391E1,-4.6598816E1,-5.606617E1,-3.3658592E1,-4.212024E1,-2.200128E1,-2.9893566E1,-1.1340572E1,-3.5656407E0,-2.1466982E1,-1.2689145E1,7.908488E0,1.5776193E1,-1.1594775E0,8.315321E0,2.9689774E1,3.7547783E1,1.9621101E1,2.7331404E1,5.0134922E1,4.1393414E1,6.2727978E1,5.4104145E1,7.3764465E1,6.494796E1,8.2788315E1,7.429932E1,9.5781044E1,8.8497894E1,5.351381E0,9.932204E1,5.8694367E0,6.311371E0,1.07681244E2,1.1709264E2,1.3914629E2,1.3124654E2,1.5138005E2,7.2187433E0,8.385906E0,8.035499E0,-8.743156E0,-8.329029E0,-7.72605E0,-8.025967E0,-7.4844623E0,-7.8134584E0,-6.1195025E0,-6.384544E0,-5.7190723E0,-6.0538135E0,-5.008329E0,-5.3230658E0,-5.5573926E0,-5.8593006E0,-4.8834825E0,-5.1481395E0,-3.8113873E0,-4.1648297E0,-4.478492E0,-4.746984E0,-3.3394458E0,-3.6313248E0,-3.875686E0,-4.1717067E0,-3.023525E0,-2.7718372E0,-3.2539005E0,-3.5184617E0,-2.4413614E0,-2.19907E0,-2.6805892E0,-2.990639E0,-1.4619116E0,-1.7617811E0,-1.9732262E0,-2.2766354E0,-1.0127614E0,-1.2143439E0,-1.4187863E0,-1.640877E0,-4.0136442E-1,-6.471921E-1,1.8557865E-3,-3.446395E-1,-9.0314627E-1,-1.2752396E0,-5.486502E-1,-7.720055E-1,5.5691856E-1,3.1608152E-1,1.0069808E0,6.9981056E-1,1.13863245E-1,-1.7837858E-1,2.953561E-1,5.57962E-1,1.5680252E0,1.4150637E0,2.0416129E0,1.7702872E0,1.0628233E0,8.223584E-1,1.2801886E0,1.547559E0,2.3800557E0,2.6250134E0,2.2251654E0,1.967019E0,3.038001E0,3.2414072E0,2.7742116E0,2.4743717E0,3.5312016E0,3.7653508E0,3.109822E0,3.398536E0,4.367473E0,4.059414E0,3.6209984E0,3.9064279E0,4.651484E0,4.92581E0,4.330928E0,4.564087E0,5.088968E0,4.8496914E0,5.5106406E0,5.207701E0,5.9461484E0,5.575871E0,6.8111E0,7.146746E0,6.3524413E0,6.691231E0,7.439412E0,7.669828E0],"categories":[],"categories_nodes":[],"categories_segments":[],"categories_sizes":[],"default_left":[0,0,0,0,0,0,0,0,0,0,0,0,0,0,0,0,0,0,0,0,0,0,0,0,0,0,0,0,0,0,0,0,0,0,0,0,0,0,0,0,0,0,0,0,0,0,0,0,0,0,0,0,0,0,0,0,0,0,0,0,0,0,0,0,0,0,0,0,0,0,0,0,0,0,0,0,0,0,0,0,0,0,0,0,0,0,0,0,0,0,0,0,0,0,0,0,0,0,0,0,0,0,0,0,0,0,0,0,0,0,0,0,0,0,0,0,0,0,0,0,0,0,0,0,0,0,0,0,0,0,0,0,0,0,0,0,0,0,0,0,0,0,0,0,0,0,0,0,0,0,0,0,0,0,0,0,0,0,0,0,0,0,0,0,0,0,0,0,0,0,0,0,0,0,0,0,0,0,0,0,0,0,0,0,0,0,0,0,0,0,0,0,0,0,0,0,0,0,0,0,0,0,0,0,0,0,0,0,0,0,0,0,0,0,0,0,0,0,0,0,0],"id":4,"left_children":[1,3,5,7,9,11,13,15,17,19,21,23,25,27,29,31,33,35,37,39,41,43,45,47,49,51,53,55,57,59,61,63,65,67,69,71,73,75,77,79,81,83,85,87,89,91,93,95,97,99,101,103,105,107,109,111,113,115,117,119,121,123,-1,125,-1,127,-1,-1,-1,129,-1,131,133,-1,-1,135,137,-1,139,141,143,145,147,149,151,153,155,157,159,161,163,165,167,169,171,173,175,177,179,181,183,185,187,189,191,193,195,197,199,201,203,205,207,-1,209,-1,-1,211,213,215,217,219,-1,-1,-1,-1,-1,-1,-1,-1,-1,-1,-1,-1,-1,-1,-1,-1,-1,-1,-1,-1,-1,-1,-1,-1,-1,-1,-1,-1,-1,-1,-1,-1,-1,-1,-1,-1,-1,-1,-1,-1,-1,-1,-1,-1,-1,-1,-1,-1,-1,-1,-1,-1,-1,-1,-1,-1,-1,-1,-1,-1,-1,-1,-1,-1,-1,-1,-1,-1,-1,-1,-1,-1,-1,-1,-1,-1,-1,-1,-1,-1,-1,-1,-1,-1,-1,-1,-1,-1,-1,-1,-1,-1,-1,-1,-1,-1,-1,-1,-1],"loss_changes":[1.1561875E9,1.5448058E8,1.4986394E8,1.6658752E7,1.9332088E7,1.9463448E7,1.960384E7,2.018336E6,2.130304E6,1.793752E6,1.771134E6,1.7979095E6,2.771296E6,2.057072E6,3.086592E6,3.4432E5,2.07632E5,1.96448E5,3.0088E5,3.31456E5,2.44236E5,2.86487E5,2.7133312E5,2.5804888E5,2.45384E5,3.408E5,2.50052E5,2.31416E5,2.42632E5,5.75744E5,1.82096E5,6.2784E4,6.7488E4,2.9884E4,5.9936E4,4.6248E4,2.0024E4,1.06864E5,5.4014E4,7.3406E4,1.04692E5,9.2164E4,6.2077E4,8.50675E4,7.315E4,6.904972E4,7.6122875E4,7.455681E4,8.7851234E4,5.13835E4,7.432075E4,9.104E4,8.0747E4,8.1052E4,7.1214E4,6.6052E4,3.4424E4,6.7856E4,6.3004E4,8.3824E4,3.3024E4,2.12E4,0E0,1.7688E4,0E0,7.08E3,0E0,0E0,0E0,6.6E3,0E0,4.8E2,1.4036E4,0E0,0E0,1.4138E4,3.49E3,0E0,2.362E3,4.019E3,3.558E3,1.9465E4,1.1081E4,1.3038E4,1.321E4,6.14625E3,1.02835E4,1.800775E4,1.78235E4,7.7370625E3,1.1451E4,1.1125844E4,2.983567E4,3.6362E4,7.270922E3,9.626781E3,2.56205E4,2.1649863E4,1.0645484E4,2.318375E3,1.415875E4,1.1962375E4,1.6004875E4,1.15195E4,1.4492E4,3.8355E3,1.5298E4,7.079E3,1.1966E4,1.9386E4,5.375E3,8.436E3,1.043E4,0E0,2.102E3,0E0,0E0,9.354E3,4.02E2,3.736E4,9.148E3,2.696E3,0E0,0E0,0E0,0E0,0E0,0E0,0E0,0E0,0E0,0E0,0E0,0E0,0E0,0E0,0E0,0E0,0E0,0E0,0E0,0E0,0E0,0E0,0E0,0E0,0E0,0E0,0E0,0E0,0E0,0E0,0E0,0E0,0E0,0E0,0E0,0E0,0E0,0E0,0E0,0E0,0E0,0E0,0E0,0E0,0E0,0E0,0E0,0E0,0E0,0E0,0E0,0E0,0E0,0E0,0E0,0E0,0E0,0E0,0E0,0E0,0E0,0E0,0E0,0E0,0E0,0E0,0E0,0E0,0E0,0E0,0E0,0E0,0E0,0E0,0E0,0E0,0E0,0E0,0E0,0E0,0E0,0E0,0E0,0E0,0E0,0E0,0E0,0E0,0E0,0E0,0E0,0E0,0E0,0E0,0E0,0E0,0E0,0E0,0E0],"parents":[2147483647,0,0,1,1,2,2,3,3,4,4,5,5,6,6,7,7,8,8,9,9,10,10,11,11,12,12,13,13,14,14,15,15,16,16,17,17,18,18,19,19,20,20,21,21,22,22,23,23,24,24,25,25,26,26,27,27,28,28,29,29,30,30,31,31,32,32,33,33,34,34,35,35,36,36,37,37,38,38,39,39,40,40,41,41,42,42,43,43,44,44,45,45,46,46,47,47,48,48,49,49,50,50,51,51,52,52,53,53,54,54,55,55,56,56,57,57,58,58,59,59,60,60,61,61,63,63,65,65,69,69,71,71,72,72,75,75,76,76,78,78,79,79,80,80,81,81,82,82,83,83,84,84,85,85,86,86,87,87,88,88,89,89,90,90,91,91,92,92,93,93,94,94,95,95,96,96,97,97,98,98,99,99,100,100,101,101,102,102,103,103,104,104,105,105,106,106,107,107,108,108,109,109,110,110,111,111,112,112,114,114,117,117,118,118,119,119,120,120,121,121],"right_children":[2,4,6,8,10,12,14,16,18,20,22,24,26,28,30,32,34,36,38,40,42,44,46,48,50,52,54,56,58,60,62,64,66,68,70,72,74,76,78,80,82,84,86,88,90,92,94,96,98,100,102,104,106,108,110,112,114,116,118,120,122,124,-1,126,-1,128,-1,-1,-1,130,-1,132,134,-1,-1,136,138,-1,140,142,144,146,148,150,152,154,156,158,160,162,164,166,168,170,172,174,176,178,180,182,184,186,188,190,192,194,196,198,200,202,204,206,208,-1,210,-1,-1,212,214,216,218,220,-1,-1,-1,-1,-1,-1,-1,-1,-1,-1,-1,-1,-1,-1,-1,-1,-1,-1,-1,-1,-1,-1,-1,-1,-1,-1,-1,-1,-1,-1,-1,-1,-1,-1,-1,-1,-1,-1,-1,-1,-1,-1,-1,-1,-1,-1,-1,-1,-1,-1,-1,-1,-1,-1,-1,-1,-1,-1,-1,-1,-1,-1,-1,-1,-1,-1,-1,-1,-1,-1,-1,-1,-1,-1,-1,-1,-1,-1,-1,-1,-1,-1,-1,-1,-1,-1,-1,-1,-1,-1,-1,-1,-1,-1,-1,-1,-1,-1,-1],"split_conditions":[2.73E2,1.63E2,3.81E2,1.09E2,2.19E2,3.24E2,4.32E2,8.5E1,1.35E2,1.91E2,2.49E2,2.99E2,3.54E2,4.07E2,4.72E2,6.9E1,1.4366667E1,1.3766666E1,1.51E2,1.75E2,2.09E2,2.35E2,6.766667E0,5.733333E0,4.4E0,3.39E2,3.67E2,3.97E2,1.3666667E0,4.53E2,4.88E2,1.66E1,1.62E1,9.7E1,9.7E1,1.23E2,1.2E2,1.2666667E1,1.15E1,1.1066667E1,1.0566667E1,9.533334E0,8.9E0,8.3E0,7.4E0,2.62E2,2.61E2,2.85E2,2.86E2,3.11E2,3.08E2,3.7333333E0,3.0666666E0,2.9E0,2.8E0,1.9333333E0,1.5666667E0,4.2E2,4.2E2,1.1E0,9.6666664E-1,4.6666667E-1,8.74848E0,5.5E1,-8.859224E0,1.4866667E1,-8.371951E0,-7.2184663E0,-6.810769E0,1.52E1,-7.264843E0,1.2833333E1,1.2566667E1,-6.75406E0,-6.4158044E0,1.16E1,1.3233334E1,-4.550526E0,1.2566667E1,9.533334E0,1.2E1,9.433333E0,1.1366667E1,2.03E2,1.0666667E1,2.15E2,9.866667E0,7.0666666E0,9.066667E0,6.8333335E0,8.466666E0,5.866667E0,5.866667E0,7.7E0,7.5666666E0,4.866667E0,4.5333333E0,6.3333335E0,2.92E2,3.8666666E0,3.6E0,5.5333333E0,3.18E2,3.32E2,4.2E0,3.48E2,4.133333E0,3.59E2,3.6E2,1.8333334E0,3.75E2,3.9E2,3.9E2,5.351381E0,2.0333333E0,5.8694367E0,6.311371E0,1.9E0,1.9E0,4.45E2,4.39E2,4.61E2,7.2187433E0,8.385906E0,8.035499E0,-8.743156E0,-8.329029E0,-7.72605E0,-8.025967E0,-7.4844623E0,-7.8134584E0,-6.1195025E0,-6.384544E0,-5.7190723E0,-6.0538135E0,-5.008329E0,-5.3230658E0,-5.5573926E0,-5.8593006E0,-4.8834825E0,-5.1481395E0,-3.8113873E0,-4.1648297E0,-4.478492E0,-4.746984E0,-3.3394458E0,-3.6313248E0,-3.875686E0,-4.1717067E0,-3.023525E0,-2.7718372E0,-3.2539005E0,-3.5184617E0,-2.4413614E0,-2.19907E0,-2.6805892E0,-2.990639E0,-1.4619116E0,-1.7617811E0,-1.9732262E0,-2.2766354E0,-1.0127614E0,-1.2143439E0,-1.4187863E0,-1.640877E0,-4.0136442E-1,-6.471921E-1,1.8557865E-3,-3.446395E-1,-9.0314627E-1,-1.2752396E0,-5.486502E-1,-7.720055E-1,5.5691856E-1,3.1608152E-1,1.0069808E0,6.9981056E-1,1.13863245E-1,-1.7837858E-1,2.953561E-1,5.57962E-1,1.5680252E0,1.4150637E0,2.0416129E0,1.7702872E0,1.0628233E0,8.223584E-1,1.2801886E0,1.547559E0,2.3800557E0,2.6250134E0,2.2251654E0,1.967019E0,3.038001E0,3.2414072E0,2.7742116E0,2.4743717E0,3.5312016E0,3.7653508E0,3.109822E0,3.398536E0,4.367473E0,4.059414E0,3.6209984E0,3.9064279E0,4.651484E0,4.92581E0,4.330928E0,4.564087E0,5.088968E0,4.8496914E0,5.5106406E0,5.207701E0,5.9461484E0,5.575871E0,6.8111E0,7.146746E0,6.3524413E0,6.691231E0,7.439412E0,7.669828E0],"split_indices":[1,1,1,1,1,1,1,1,1,1,1,1,1,1,1,1,8,8,1,1,1,1,8,8,8,1,1,1,8,1,1,8,8,1,1,1,1,8,8,8,8,8,8,8,8,1,1,1,1,1,1,8,8,8,8,8,8,1,1,8,8,8,0,1,0,8,0,0,0,8,0,8,8,0,0,8,8,0,8,8,8,8,8,1,8,1,8,8,8,8,8,8,8,8,8,8,8,8,1,8,8,8,1,1,8,1,8,1,1,8,1,1,1,0,8,0,0,8,8,1,1,1,0,0,0,0,0,0,0,0,0,0,0,0,0,0,0,0,0,0,0,0,0,0,0,0,0,0,0,0,0,0,0,0,0,0,0,0,0,0,0,0,0,0,0,0,0,0,0,0,0,0,0,0,0,0,0,0,0,0,0,0,0,0,0,0,0,0,0,0,0,0,0,0,0,0,0,0,0,0,0,0,0,0,0,0,0,0,0,0,0,0,0,0,0,0,0,0,0,0,0],"split_type":[0,0,0,0,0,0,0,0,0,0,0,0,0,0,0,0,0,0,0,0,0,0,0,0,0,0,0,0,0,0,0,0,0,0,0,0,0,0,0,0,0,0,0,0,0,0,0,0,0,0,0,0,0,0,0,0,0,0,0,0,0,0,0,0,0,0,0,0,0,0,0,0,0,0,0,0,0,0,0,0,0,0,0,0,0,0,0,0,0,0,0,0,0,0,0,0,0,0,0,0,0,0,0,0,0,0,0,0,0,0,0,0,0,0,0,0,0,0,0,0,0,0,0,0,0,0,0,0,0,0,0,0,0,0,0,0,0,0,0,0,0,0,0,0,0,0,0,0,0,0,0,0,0,0,0,0,0,0,0,0,0,0,0,0,0,0,0,0,0,0,0,0,0,0,0,0,0,0,0,0,0,0,0,0,0,0,0,0,0,0,0,0,0,0,0,0,0,0,0,0,0,0,0,0,0,0,0,0,0,0,0,0,0,0,0,0,0,0,0,0,0],"sum_hessian":[1.464E5,7.115E4,7.525E4,3.5386E4,3.5764E4,3.7311E4,3.7939E4,1.9135E4,1.6251E4,1.7166E4,1.8598E4,1.8056E4,1.9255E4,1.7123E4,2.0816E4,1.1125E4,8.01E3,8.268E3,7.983E3,8.609E3,8.557E3,9.744E3,8.854E3,9.402E3,8.654E3,9.592E3,9.663E3,9.115E3,8.008E3,1.3894E4,6.922E3,5.721E3,5.404E3,3.139E3,4.871E3,4.951E3,3.317E3,4.54E3,3.443E3,3.446E3,5.163E3,5.67E3,2.887E3,4.894E3,4.85E3,4.601E3,4.253E3,5.225E3,4.177E3,3.598E3,5.056E3,4.881E3,4.711E3,4.504E3,5.159E3,5.842E3,3.273E3,4.338E3,3.67E3,7.543E3,6.351E3,3.972E3,2.95E3,3.249E3,2.472E3,3.814E3,1.59E3,1.199E3,1.94E3,2.903E3,1.968E3,2.351E3,2.6E3,1.849E3,1.468E3,2.697E3,1.843E3,1.541E3,1.902E3,1.762E3,1.684E3,3.099E3,2.064E3,2.706E3,2.964E3,1.421E3,1.466E3,2.73E3,2.164E3,2.061E3,2.789E3,2.113E3,2.488E3,2.678E3,1.575E3,1.891E3,3.334E3,2.614E3,1.563E3,1.381E3,2.217E3,2.371E3,2.685E3,2.338E3,2.543E3,1.88E3,2.831E3,2.558E3,1.946E3,3.627E3,1.532E3,2.338E3,3.504E3,1.181E3,2.092E3,1.844E3,2.494E3,2.332E3,1.338E3,5.128E3,2.415E3,4.882E3,1.469E3,1.739E3,2.233E3,9.54E2,2.295E3,1.426E3,2.388E3,1.164E3,1.739E3,1.014E3,1.337E3,1.047E3,1.553E3,1.003E3,1.694E3,8.19E2,1.024E3,1.219E3,6.83E2,2.51E2,1.511E3,9.3E2,7.54E2,1.125E3,1.974E3,1.225E3,8.39E2,1.626E3,1.08E3,2.055E3,9.09E2,7.58E2,6.63E2,8.95E2,5.71E2,7.23E2,2.007E3,1.224E3,9.4E2,1.174E3,8.87E2,1.843E3,9.46E2,6.91E2,1.422E3,1.195E3,1.293E3,1.456E3,1.222E3,9.73E2,6.02E2,6.21E2,1.27E3,9.63E2,2.371E3,1.077E3,1.537E3,8.48E2,7.15E2,6.17E2,7.64E2,8.68E2,1.349E3,1.561E3,8.1E2,1.823E3,8.62E2,1.139E3,1.199E3,1.003E3,1.54E3,9.86E2,8.94E2,2.171E3,6.6E2,8.58E2,1.7E3,1.03E3,9.16E2,9.28E2,2.699E3,1.041E3,4.91E2,1.183E3,1.155E3,2.111E3,1.393E3,9.97E2,1.095E3,1.34E3,9.92E2,9.92E2,3.46E2,2.915E3,2.213E3,9.38E2,1.477E3,2.169E3,2.713E3],"tree_param":{"num_deleted":"0","num_feature":"9","num_nodes":"221","size_leaf_vector":"1"}},{"base_weights":[-3.5493524E-4,-8.814977E1,8.086225E1,-1.3277386E2,-4.54822E1,3.7342922E1,1.2336333E2,-1.5208849E2,-1.1253184E2,-6.868957E1,-2.4140827E1,1.5784107E1,5.959296E1,9.910336E1,1.43365E2,-1.613186E2,-1.4353537E2,-1.222962E2,-1.0030532E2,-8.169084E1,-6.1291687E1,-3.5025875E1,-1.5877532E1,5.2760005E0,2.5373972E1,4.8207645E1,7.034124E1,8.9838E1,1.10959274E2,1.3467592E2,1.5918555E2,-1.562341E2,-1.6563031E2,-1.3851291E2,-1.4896736E2,-1.1789735E2,-1.2871376E2,-9.498404E1,-1.06433136E2,-7.7288055E1,-8.806549E1,-6.724919E1,-5.6061455E1,-4.1891533E1,-3.111817E1,-1.1841262E1,-2.3176237E1,9.61337E0,-7.7271783E-1,2.045223E1,3.117221E1,4.2923244E1,5.358061E1,6.449892E1,7.470368E1,8.559857E1,9.6056404E1,1.146742E2,1.0335734E2,1.27413704E2,1.398213E2,1.5264308E2,1.6428694E2,-8.127951E0,-7.690416E0,-8.542777E0,-8.173415E0,-7.1883845E0,-1.34866E2,-7.581861E0,-7.169061E0,-6.1781387E0,-1.1516933E2,-6.6557856E0,-6.256939E0,-5.0050607E0,-9.1216446E1,-1.10657524E2,-1.0240095E2,-8.174912E1,-7.3552086E1,-4.5200047E0,-8.474665E1,-6.230416E1,-7.086871E1,-5.0638584E1,-5.927698E1,-3.8277874E1,-4.628303E1,-2.7347986E1,-3.4799324E1,-1.7215868E1,-8.275366E0,-2.5725363E1,-1.6551199E1,5.32425E0,1.2758667E1,-5.351248E0,2.7297387E0,2.5681974E1,1.7235142E1,3.6504025E1,2.7556438E1,4.6324566E1,3.8006866E1,5.7562534E1,4.943836E1,6.748824E1,5.8594707E1,7.848689E1,7.1068344E1,8.980221E1,8.307574E1,5.0078607E0,9.290508E1,1.1034218E2,1.1850673E2,5.0171285E0,5.405634E0,1.2933083E2,6.0841513E0,1.3622533E2,1.4294273E2,7.74427E0,7.384533E0,8.063356E0,8.422443E0,-6.512424E0,-6.871595E0,-5.5938296E0,-5.8972607E0,-4.3313904E0,-4.659701E0,-5.373759E0,-5.6818686E0,-5.231142E0,-4.9209805E0,-3.9139607E0,-4.1503215E0,-3.557914E0,-3.8108265E0,-4.127188E0,-4.3978024E0,-2.9978015E0,-3.2162397E0,-3.4473875E0,-3.746559E0,-2.6892407E0,-2.3725839E0,-2.8697248E0,-3.1384883E0,-1.7518501E0,-2.0080345E0,-2.176015E0,-2.4820993E0,-1.2169392E0,-1.4584489E0,-1.6698382E0,-1.9774191E0,-1.0189672E0,-7.6903415E-1,-2.1151648E-1,-5.517463E-1,-1.1750926E0,-1.356668E0,-9.7886753E-1,-7.2545856E-1,3.5007903E-1,1.2899496E-1,7.832615E-1,4.9767318E-1,-1.7935617E-1,-5.0867933E-1,1.3626548E-2,2.9419523E-1,1.1323279E0,1.3723055E0,7.511889E-1,9.767108E-1,1.733344E0,2.0107481E0,1.5435566E0,1.2714521E0,2.472437E0,2.2191064E0,1.9775822E0,1.7641767E0,2.9960108E0,2.7695656E0,2.3180397E0,2.5773082E0,3.487838E0,3.233628E0,3.0072663E0,2.7763336E0,4.162393E0,3.8616402E0,3.6398976E0,3.3681896E0,4.3302507E0,4.6093454E0,4.028862E0,4.2559886E0,4.4966216E0,4.7303557E0,5.6543555E0,5.3889914E0,6.0422187E0,5.7560554E0,6.2750106E0,6.556732E0,6.8944545E0,6.506664E0,7.245024E0,6.977823E0],"categories":[],"categories_nodes":[],"categories_segments":[],"categories_sizes":[],"default_left":[0,0,0,0,0,0,0,0,0,0,0,0,0,0,0,0,0,0,0,0,0,0,0,0,0,0,0,0,0,0,0,0,0,0,0,0,0,0,0,0,0,0,0,0,0,0,0,0,0,0,0,0,0,0,0,0,0,0,0,0,0,0,0,0,0,0,0,0,0,0,0,0,0,0,0,0,0,0,0,0,0,0,0,0,0,0,0,0,0,0,0,0,0,0,0,0,0,0,0,0,0,0,0,0,0,0,0,0,0,0,0,0,0,0,0,0,0,0,0,0,0,0,0,0,0,0,0,0,0,0,0,0,0,0,0,0,0,0,0,0,0,0,0,0,0,0,0,0,0,0,0,0,0,0,0,0,0,0,0,0,0,0,0,0,0,0,0,0,0,0,0,0,0,0,0,0,0,0,0,0,0,0,0,0,0,0,0,0,0,0,0,0,0,0,0,0,0,0,0,0,0,0,0,0,0,0,0,0,0,0,0,0,0,0,0],"id":5,"left_children":[1,3,5,7,9,11,13,15,17,19,21,23,25,27,29,31,33,35,37,39,41,43,45,47,49,51,53,55,57,59,61,63,65,67,69,71,73,75,77,79,81,83,85,87,89,91,93,95,97,99,101,103,105,107,109,111,113,115,117,119,121,123,125,-1,-1,-1,-1,-1,127,-1,-1,-1,129,-1,-1,-1,131,133,135,137,139,-1,141,143,145,147,149,151,153,155,157,159,161,163,165,167,169,171,173,175,177,179,181,183,185,187,189,191,193,195,197,199,201,-1,203,205,207,-1,-1,209,-1,211,213,-1,-1,-1,-1,-1,-1,-1,-1,-1,-1,-1,-1,-1,-1,-1,-1,-1,-1,-1,-1,-1,-1,-1,-1,-1,-1,-1,-1,-1,-1,-1,-1,-1,-1,-1,-1,-1,-1,-1,-1,-1,-1,-1,-1,-1,-1,-1,-1,-1,-1,-1,-1,-1,-1,-1,-1,-1,-1,-1,-1,-1,-1,-1,-1,-1,-1,-1,-1,-1,-1,-1,-1,-1,-1,-1,-1,-1,-1,-1,-1,-1,-1,-1,-1,-1,-1,-1,-1,-1,-1,-1,-1],"loss_changes":[1.04355226E9,1.3335981E8,1.4122672E8,1.3368448E7,1.773372E7,1.80966E7,1.8730624E7,1.359712E6,1.983952E6,1.644896E6,1.677483E6,1.930947E6,2.268572E6,1.908E6,2.888864E6,1.58656E5,2.27664E5,2.4712E5,2.32168E5,1.67708E5,3.37016E5,2.14669E5,3.1220325E5,2.3993136E5,2.85279E5,2.53776E5,2.38532E5,2.50288E5,2.04328E5,4.93072E5,2.25248E5,3.4528E4,2.3344E4,7.1504E4,4.3264E4,7.116E4,4.264E4,6.7716E4,4.7348E4,5.542E4,1.1966E4,8.7012E4,9.8658E4,4.4519E4,7.0301E4,1.3079475E5,6.33435E4,7.178272E4,6.127252E4,9.078025E4,8.76375E4,7.43585E4,7.085E4,6.8214E4,6.9514E4,5.4472E4,4.196E4,7.2144E4,2.5322E4,4.668E4,7.0224E4,1.3768E4,2.5632E4,0E0,0E0,0E0,0E0,0E0,1.546E4,0E0,0E0,0E0,2.1024E4,0E0,0E0,0E0,1.2862E4,3.622E3,5.414E3,7.93E2,7.435E3,0E0,2.48E2,6.425E3,1.7791E4,1.92765E4,2.0423E4,8.39275E3,1.001475E4,1.3214E4,1.59575E4,1.55009375E4,4.5820094E4,7.8935E3,6.2168125E3,1.0362117E4,2.4891594E4,1.405143E4,1.67781E4,1.04255E4,1.6789E4,1.125225E4,1.8564625E4,1.4106E4,6.459E3,8.3115E3,1.1862E4,1.2785E4,3.235E3,9.489E3,1.3004E4,8.622E3,1.185E4,0E0,2.912E3,4.86E3,7.536E3,0E0,0E0,1.2848E4,0E0,1.9912E4,8.008E3,0E0,0E0,0E0,0E0,0E0,0E0,0E0,0E0,0E0,0E0,0E0,0E0,0E0,0E0,0E0,0E0,0E0,0E0,0E0,0E0,0E0,0E0,0E0,0E0,0E0,0E0,0E0,0E0,0E0,0E0,0E0,0E0,0E0,0E0,0E0,0E0,0E0,0E0,0E0,0E0,0E0,0E0,0E0,0E0,0E0,0E0,0E0,0E0,0E0,0E0,0E0,0E0,0E0,0E0,0E0,0E0,0E0,0E0,0E0,0E0,0E0,0E0,0E0,0E0,0E0,0E0,0E0,0E0,0E0,0E0,0E0,0E0,0E0,0E0,0E0,0E0,0E0,0E0,0E0,0E0,0E0,0E0,0E0,0E0,0E0,0E0,0E0,0E0,0E0,0E0,0E0,0E0],"parents":[2147483647,0,0,1,1,2,2,3,3,4,4,5,5,6,6,7,7,8,8,9,9,10,10,11,11,12,12,13,13,14,14,15,15,16,16,17,17,18,18,19,19,20,20,21,21,22,22,23,23,24,24,25,25,26,26,27,27,28,28,29,29,30,30,31,31,32,32,33,33,34,34,35,35,36,36,37,37,38,38,39,39,40,40,41,41,42,42,43,43,44,44,45,45,46,46,47,47,48,48,49,49,50,50,51,51,52,52,53,53,54,54,55,55,56,56,57,57,58,58,59,59,60,60,61,61,62,62,68,68,72,72,76,76,77,77,78,78,79,79,80,80,82,82,83,83,84,84,85,85,86,86,87,87,88,88,89,89,90,90,91,91,92,92,93,93,94,94,95,95,96,96,97,97,98,98,99,99,100,100,101,101,102,102,103,103,104,104,105,105,106,106,107,107,108,108,109,109,110,110,111,111,112,112,114,114,115,115,116,116,119,119,121,121,122,122],"right_children":[2,4,6,8,10,12,14,16,18,20,22,24,26,28,30,32,34,36,38,40,42,44,46,48,50,52,54,56,58,60,62,64,66,68,70,72,74,76,78,80,82,84,86,88,90,92,94,96,98,100,102,104,106,108,110,112,114,116,118,120,122,124,126,-1,-1,-1,-1,-1,128,-1,-1,-1,130,-1,-1,-1,132,134,136,138,140,-1,142,144,146,148,150,152,154,156,158,160,162,164,166,168,170,172,174,176,178,180,182,184,186,188,190,192,194,196,198,200,202,-1,204,206,208,-1,-1,210,-1,212,214,-1,-1,-1,-1,-1,-1,-1,-1,-1,-1,-1,-1,-1,-1,-1,-1,-1,-1,-1,-1,-1,-1,-1,-1,-1,-1,-1,-1,-1,-1,-1,-1,-1,-1,-1,-1,-1,-1,-1,-1,-1,-1,-1,-1,-1,-1,-1,-1,-1,-1,-1,-1,-1,-1,-1,-1,-1,-1,-1,-1,-1,-1,-1,-1,-1,-1,-1,-1,-1,-1,-1,-1,-1,-1,-1,-1,-1,-1,-1,-1,-1,-1,-1,-1,-1,-1,-1,-1,-1,-1,-1,-1],"split_conditions":[2.7E2,1.59E2,3.79E2,1.04E2,2.15E2,3.24E2,4.31E2,7.7E1,1.33E2,1.8E2,2.41E2,2.95E2,3.52E2,4.07E2,4.7E2,1.61E1,1.5033334E1,1.3933333E1,1.2366667E1,1.1266666E1,1.96E2,2.25E2,7.4E0,5.9333334E0,3.1E2,3.38E2,3.64E2,3.95E2,1.5666667E0,4.47E2,4.82E2,6.1E1,5.2E1,9.1E1,9.2E1,1.16E2,1.13E2,1.47E2,1.42E2,1.71E2,1.69E2,9.866667E0,9E0,8.633333E0,7.9333334E0,2.55E2,2.57E2,2.83E2,2.78E2,4.6666665E0,4.133333E0,4E0,3.3333333E0,3.2E0,2.4666667E0,1.9333333E0,1.7E0,4.2E2,4.18E2,1.2333333E0,4.57E2,7E-1,4.96E2,-8.127951E0,-7.690416E0,-8.542777E0,-8.173415E0,-7.1883845E0,1.3866667E1,-7.581861E0,-7.169061E0,-6.1781387E0,1.2833333E1,-6.6557856E0,-6.256939E0,-5.0050607E0,1.0966666E1,1.3233334E1,1.51E2,1.0066667E1,1.03E1,-4.5200047E0,1.21E1,9.166667E0,1.1066667E1,2.07E2,1.0233334E1,7.7E0,9.433333E0,7E0,9.166667E0,2.47E2,6.133333E0,7.9333334E0,2.61E2,5.4666667E0,5.0666666E0,7.1666665E0,2.86E2,3.02E2,3.02E2,3.2E2,4.733333E0,3.2E0,4.733333E0,2.7333333E0,3.43E2,2.6E0,3.8E0,1.6666666E0,3.1666667E0,3.87E2,3.86E2,5.0078607E0,3.99E2,1.1333333E0,1.1333333E0,5.0171285E0,5.405634E0,4.37E2,6.0841513E0,1.1E0,8E-1,7.74427E0,7.384533E0,8.063356E0,8.422443E0,-6.512424E0,-6.871595E0,-5.5938296E0,-5.8972607E0,-4.3313904E0,-4.659701E0,-5.373759E0,-5.6818686E0,-5.231142E0,-4.9209805E0,-3.9139607E0,-4.1503215E0,-3.557914E0,-3.8108265E0,-4.127188E0,-4.3978024E0,-2.9978015E0,-3.2162397E0,-3.4473875E0,-3.746559E0,-2.6892407E0,-2.3725839E0,-2.8697248E0,-3.1384883E0,-1.7518501E0,-2.0080345E0,-2.176015E0,-2.4820993E0,-1.2169392E0,-1.4584489E0,-1.6698382E0,-1.9774191E0,-1.0189672E0,-7.6903415E-1,-2.1151648E-1,-5.517463E-1,-1.1750926E0,-1.356668E0,-9.7886753E-1,-7.2545856E-1,3.5007903E-1,1.2899496E-1,7.832615E-1,4.9767318E-1,-1.7935617E-1,-5.0867933E-1,1.3626548E-2,2.9419523E-1,1.1323279E0,1.3723055E0,7.511889E-1,9.767108E-1,1.733344E0,2.0107481E0,1.5435566E0,1.2714521E0,2.472437E0,2.2191064E0,1.9775822E0,1.7641767E0,2.9960108E0,2.7695656E0,2.3180397E0,2.5773082E0,3.487838E0,3.233628E0,3.0072663E0,2.7763336E0,4.162393E0,3.8616402E0,3.6398976E0,3.3681896E0,4.3302507E0,4.6093454E0,4.028862E0,4.2559886E0,4.4966216E0,4.7303557E0,5.6543555E0,5.3889914E0,6.0422187E0,5.7560554E0,6.2750106E0,6.556732E0,6.8944545E0,6.506664E0,7.245024E0,6.977823E0],"split_indices":[1,1,1,1,1,1,1,1,1,1,1,1,1,1,1,8,8,8,8,8,1,1,8,8,1,1,1,1,8,1,1,1,1,1,1,1,1,1,1,1,1,8,8,8,8,1,1,1,1,8,8,8,8,8,8,8,8,1,1,8,1,8,1,0,0,0,0,0,8,0,0,0,8,0,0,0,8,8,1,8,8,0,8,8,8,1,8,8,8,8,8,1,8,8,1,8,8,8,1,1,1,1,8,8,8,8,1,8,8,8,8,1,1,0,1,8,8,0,0,1,0,8,8,0,0,0,0,0,0,0,0,0,0,0,0,0,0,0,0,0,0,0,0,0,0,0,0,0,0,0,0,0,0,0,0,0,0,0,0,0,0,0,0,0,0,0,0,0,0,0,0,0,0,0,0,0,0,0,0,0,0,0,0,0,0,0,0,0,0,0,0,0,0,0,0,0,0,0,0,0,0,0,0,0,0,0,0,0,0,0,0,0,0,0,0],"split_type":[0,0,0,0,0,0,0,0,0,0,0,0,0,0,0,0,0,0,0,0,0,0,0,0,0,0,0,0,0,0,0,0,0,0,0,0,0,0,0,0,0,0,0,0,0,0,0,0,0,0,0,0,0,0,0,0,0,0,0,0,0,0,0,0,0,0,0,0,0,0,0,0,0,0,0,0,0,0,0,0,0,0,0,0,0,0,0,0,0,0,0,0,0,0,0,0,0,0,0,0,0,0,0,0,0,0,0,0,0,0,0,0,0,0,0,0,0,0,0,0,0,0,0,0,0,0,0,0,0,0,0,0,0,0,0,0,0,0,0,0,0,0,0,0,0,0,0,0,0,0,0,0,0,0,0,0,0,0,0,0,0,0,0,0,0,0,0,0,0,0,0,0,0,0,0,0,0,0,0,0,0,0,0,0,0,0,0,0,0,0,0,0,0,0,0,0,0,0,0,0,0,0,0,0,0,0,0,0,0,0,0,0,0,0,0],"sum_hessian":[1.464E5,7.0044E4,7.6356E4,3.4236E4,3.5808E4,3.7727E4,3.8629E4,1.7516E4,1.672E4,1.7153E4,1.8655E4,1.9162E4,1.8565E4,1.7459E4,2.117E4,8.416E3,9.1E3,9.291E3,7.429E3,6.217E3,1.0936E4,8.049E3,1.0606E4,9.144E3,1.0018E4,9.018E3,9.547E3,9.805E3,7.654E3,1.3671E4,7.499E3,3.879E3,4.537E3,4.742E3,4.358E3,5.524E3,3.767E3,3.985E3,3.444E3,3.685E3,2.532E3,5.107E3,5.829E3,2.916E3,5.133E3,6.831E3,3.775E3,5.325E3,3.819E3,5.421E3,4.597E3,4.551E3,4.467E3,4.088E3,5.459E3,5.839E3,3.966E3,5.132E3,2.522E3,5.68E3,7.991E3,3.299E3,4.2E3,1.057E3,2.822E3,1.305E3,3.232E3,1.927E3,2.815E3,2.931E3,1.427E3,1.781E3,3.743E3,1.672E3,2.095E3,1.679E3,2.306E3,1.669E3,1.775E3,1.67E3,2.015E3,1.471E3,1.061E3,2.166E3,2.941E3,2.176E3,3.653E3,1.605E3,1.311E3,2.54E3,2.593E3,2.723E3,4.108E3,2.724E3,1.051E3,2.254E3,3.071E3,1.655E3,2.164E3,2.062E3,3.359E3,1.854E3,2.743E3,2.685E3,1.866E3,2.271E3,2.196E3,2.707E3,1.381E3,2.665E3,2.794E3,2.177E3,3.662E3,1.71E3,2.256E3,2.423E3,2.709E3,1.557E3,9.65E2,4.24E3,1.44E3,3.734E3,4.257E3,2.25E3,1.049E3,2.457E3,1.743E3,1.024E3,1.791E3,1.731E3,2.012E3,7.08E2,1.598E3,8.25E2,8.44E2,1.123E3,6.52E2,4.61E2,1.209E3,1.076E3,9.39E2,6.45E2,4.16E2,1.016E3,1.15E3,2.009E3,9.32E2,1.087E3,1.089E3,2.385E3,1.268E3,5.97E2,1.008E3,7.27E2,5.84E2,9.63E2,1.577E3,2.008E3,5.85E2,9.96E2,1.727E3,1.667E3,2.441E3,1.063E3,1.661E3,4.2E2,6.31E2,1.398E3,8.56E2,1.506E3,1.565E3,1.213E3,4.42E2,1.217E3,9.47E2,7.63E2,1.299E3,1.716E3,1.643E3,1.247E3,6.07E2,1.067E3,1.676E3,1.02E3,1.665E3,1.182E3,6.84E2,1.076E3,1.195E3,9.02E2,1.294E3,1.486E3,1.221E3,9.05E2,4.76E2,5.42E2,2.123E3,1.892E3,9.02E2,9.46E2,1.231E3,1.666E3,1.996E3,8.41E2,1.415E3,1.149E3,1.274E3,1.582E3,1.127E3,1.38E3,2.86E3,2.916E3,8.18E2,2.671E3,1.586E3],"tree_param":{"num_deleted":"0","num_feature":"9","num_nodes":"215","size_leaf_vector":"1"}},{"base_weights":[-3.8049344E-4,-8.248864E1,7.799356E1,-1.24768005E2,-4.0653812E1,3.737682E1,1.17935936E2,-1.428253E2,-1.0349867E2,-6.249818E1,-2.0489128E1,1.6503334E1,5.773229E1,9.487117E1,1.3620045E2,-1.5165198E2,-1.3293835E2,-1.1230571E2,-9.124037E1,-7.1713585E1,-5.321948E1,-2.8884596E1,-1.1247533E1,7.4481473E0,2.594014E1,4.683126E1,6.813441E1,8.60062E1,1.05415665E2,1.2842413E2,1.521861E2,-1.5854778E2,-1.4814914E2,-1.3858327E2,-1.2832143E2,-1.0653973E2,-1.1685825E2,-8.510165E1,-9.524982E1,-7.7719284E1,-6.6379944E1,-5.729435E1,-4.7410362E1,-3.3787823E1,-2.3930944E1,-6.422493E0,-1.6464643E1,1.1685605E1,2.1459928E0,3.1733786E1,2.162042E1,4.149266E1,5.193786E1,6.314176E1,7.2480095E1,8.251618E1,9.2208466E1,1.08944954E2,9.81936E1,1.22968315E2,1.3518762E2,1.4786555E2,7.8975677E0,-8.161253E0,-7.8081994E0,-1.445429E2,-7.6382003E0,-6.734044E0,-7.138528E0,-6.1495485E0,-1.3187791E2,-1.10144104E2,-1.0176461E2,-1.19139114E2,-5.549445E0,-4.458441E0,-8.2027824E1,-9.8615486E1,-9.03673E1,-7.375374E1,-8.2901535E1,-6.262852E1,-7.098393E1,-5.4121834E1,-6.1278484E1,-4.3592884E1,-5.237627E1,-3.0397943E1,-3.8048317E1,-2.0024897E1,-2.7108807E1,-9.661771E0,-2.544968E0,-1.939729E1,-1.14690695E1,7.1453314E0,1.4257873E1,-1.0373306E0,7.4671206E0,2.806243E1,3.5636414E1,1.8931E1,2.6781796E1,4.4295444E1,3.6031513E1,5.6614388E1,4.8813393E1,6.596907E1,5.7617474E1,7.476006E1,6.703704E1,8.796911E1,8.0599E1,9.508725E1,4.410424E0,1.05449326E2,1.13300385E2,4.7664332E0,5.135632E0,1.18140305E2,1.25463264E2,6.844314E0,6.5465846E0,7.574159E0,7.2490854E0,-7.0564995E0,-7.3092055E0,-6.4806952E0,-6.8313227E0,-5.631839E0,-5.392651E0,-4.9305964E0,-5.201284E0,-5.827946E0,-6.1146374E0,-3.9333084E0,-4.172133E0,-4.812389E0,-5.176164E0,-4.4530706E0,-4.7186465E0,-3.8199596E0,-3.5610967E0,-4.0168147E0,-4.25862E0,-2.9629393E0,-3.2132156E0,-3.4392846E0,-3.7109196E0,-2.5588214E0,-2.7955253E0,-3.2002568E0,-2.9806888E0,-2.0282829E0,-2.294214E0,-2.7207694E0,-2.4633708E0,-1.6788014E0,-1.4277085E0,-1.7944872E0,-2.072177E0,-9.1041464E-1,-1.1063386E0,-1.2967623E0,-1.5049164E0,-2.7823076E-1,-5.413267E-1,5.779053E-2,-2.6331824E-1,-8.182883E-1,-1.1496491E0,-6.605543E-1,-4.5156732E-1,5.642754E-1,3.0435166E-1,9.639846E-1,6.466673E-1,1.06550895E-1,-1.628692E-1,4.5583344E-1,1.9484459E-1,1.2987596E0,1.5046251E0,1.8689053E0,1.5784495E0,1.0269817E0,7.810228E-1,1.257146E0,1.4782251E0,2.3644917E0,2.111229E0,1.8459675E0,1.6545022E0,2.7410233E0,2.926473E0,2.327172E0,2.5672758E0,3.4295075E0,3.200322E0,2.7424514E0,2.9982011E0,3.866471E0,3.6186078E0,3.2650032E0,3.528975E0,4.2061133E0,4.4780126E0,4.1283183E0,3.8864334E0,4.926786E0,4.6700134E0,5.4091187E0,5.139018E0,5.852023E0,5.5737777E0,6.012529E0,5.646018E0,6.4536285E0,6.145478E0],"categories":[],"categories_nodes":[],"categories_segments":[],"categories_sizes":[],"default_left":[0,0,0,0,0,0,0,0,0,0,0,0,0,0,0,0,0,0,0,0,0,0,0,0,0,0,0,0,0,0,0,0,0,0,0,0,0,0,0,0,0,0,0,0,0,0,0,0,0,0,0,0,0,0,0,0,0,0,0,0,0,0,0,0,0,0,0,0,0,0,0,0,0,0,0,0,0,0,0,0,0,0,0,0,0,0,0,0,0,0,0,0,0,0,0,0,0,0,0,0,0,0,0,0,0,0,0,0,0,0,0,0,0,0,0,0,0,0,0,0,0,0,0,0,0,0,0,0,0,0,0,0,0,0,0,0,0,0,0,0,0,0,0,0,0,0,0,0,0,0,0,0,0,0,0,0,0,0,0,0,0,0,0,0,0,0,0,0,0,0,0,0,0,0,0,0,0,0,0,0,0,0,0,0,0,0,0,0,0,0,0,0,0,0,0,0,0,0,0,0,0,0,0,0,0,0,0,0,0,0,0,0,0,0,0,0,0,0,0],"id":6,"left_children":[1,3,5,7,9,11,13,15,17,19,21,23,25,27,29,31,33,35,37,39,41,43,45,47,49,51,53,55,57,59,61,63,65,67,69,71,73,75,77,79,81,83,85,87,89,91,93,95,97,99,101,103,105,107,109,111,113,115,117,119,121,123,-1,-1,-1,125,-1,-1,-1,-1,127,129,131,133,-1,-1,135,137,139,141,143,145,147,149,151,153,155,157,159,161,163,165,167,169,171,173,175,177,179,181,183,185,187,189,191,193,195,197,199,201,203,205,207,209,-1,211,213,-1,-1,215,217,-1,-1,-1,-1,-1,-1,-1,-1,-1,-1,-1,-1,-1,-1,-1,-1,-1,-1,-1,-1,-1,-1,-1,-1,-1,-1,-1,-1,-1,-1,-1,-1,-1,-1,-1,-1,-1,-1,-1,-1,-1,-1,-1,-1,-1,-1,-1,-1,-1,-1,-1,-1,-1,-1,-1,-1,-1,-1,-1,-1,-1,-1,-1,-1,-1,-1,-1,-1,-1,-1,-1,-1,-1,-1,-1,-1,-1,-1,-1,-1,-1,-1,-1,-1,-1,-1,-1,-1,-1,-1,-1,-1,-1,-1,-1,-1,-1,-1],"loss_changes":[9.4188954E8,1.2584323E8,1.2207744E8,1.3576192E7,1.5752656E7,1.5852528E7,1.5969952E7,1.649824E6,1.744288E6,1.464084E6,1.442726E6,1.57409E6,2.138824E6,1.558544E6,2.61216E6,2.20544E5,2.17664E5,2.35696E5,1.5926E5,2.7064E5,1.99864E5,2.35886E5,2.2279912E5,2.1123828E5,2.250815E5,2.4939E5,2.05092E5,1.8972E5,1.84416E5,5.09168E5,1.49104E5,1.2296E4,8.968E4,4.6976E4,7.8248E4,6.0768E4,5.736E4,2.639E4,5.8548E4,7.699E4,7.4432E4,6.0198E4,6.4712E4,6.954E4,5.9672E4,5.777828E4,6.209975E4,6.0931562E4,7.077834E4,5.417675E4,7.127225E4,6.7528E4,6.6086E4,6.6564E4,5.9024E4,5.3992E4,2.9314E4,6.6208E4,2.2874E4,8.0312E4,2.7992E4,1.9488E4,0E0,0E0,0E0,5.84E2,0E0,0E0,0E0,0E0,1.4272E4,1.394E3,2.66E3,1.6524E4,0E0,0E0,7.99E2,1.8144E4,4.19E2,9.963E3,3.323E3,1.011E4,9.421E3,1.1921E4,6.261E3,1.20395E4,7.0245E3,1.504375E4,1.437975E4,7.9209375E3,8.59375E3,1.1903703E4,2.1115502E4,2.8825938E4,6.5732656E3,8.22118E3,2.1933438E4,1.84006E4,9.175281E3,7.646125E3,1.2018E4,1.780175E4,7.32425E3,1.6482E4,2.79225E3,3.2535E3,1.3888E4,1.0903E4,6.67E3,1.6664E4,4.8235E3,1.702E3,1.8064E4,1.798E3,0E0,9.758E3,2.458E3,0E0,0E0,1.6252E4,3.1984E4,0E0,0E0,0E0,0E0,0E0,0E0,0E0,0E0,0E0,0E0,0E0,0E0,0E0,0E0,0E0,0E0,0E0,0E0,0E0,0E0,0E0,0E0,0E0,0E0,0E0,0E0,0E0,0E0,0E0,0E0,0E0,0E0,0E0,0E0,0E0,0E0,0E0,0E0,0E0,0E0,0E0,0E0,0E0,0E0,0E0,0E0,0E0,0E0,0E0,0E0,0E0,0E0,0E0,0E0,0E0,0E0,0E0,0E0,0E0,0E0,0E0,0E0,0E0,0E0,0E0,0E0,0E0,0E0,0E0,0E0,0E0,0E0,0E0,0E0,0E0,0E0,0E0,0E0,0E0,0E0,0E0,0E0,0E0,0E0,0E0,0E0,0E0,0E0,0E0,0E0,0E0,0E0,0E0,0E0,0E0,0E0,0E0,0E0],"parents":[2147483647,0,0,1,1,2,2,3,3,4,4,5,5,6,6,7,7,8,8,9,9,10,10,11,11,12,12,13,13,14,14,15,15,16,16,17,17,18,18,19,19,20,20,21,21,22,22,23,23,24,24,25,25,26,26,27,27,28,28,29,29,30,30,31,31,32,32,33,33,34,34,35,35,36,36,37,37,38,38,39,39,40,40,41,41,42,42,43,43,44,44,45,45,46,46,47,47,48,48,49,49,50,50,51,51,52,52,53,53,54,54,55,55,56,56,57,57,58,58,59,59,60,60,61,61,65,65,70,70,71,71,72,72,73,73,76,76,77,77,78,78,79,79,80,80,81,81,82,82,83,83,84,84,85,85,86,86,87,87,88,88,89,89,90,90,91,91,92,92,93,93,94,94,95,95,96,96,97,97,98,98,99,99,100,100,101,101,102,102,103,103,104,104,105,105,106,106,107,107,108,108,109,109,110,110,111,111,112,112,113,113,115,115,116,116,119,119,120,120],"right_children":[2,4,6,8,10,12,14,16,18,20,22,24,26,28,30,32,34,36,38,40,42,44,46,48,50,52,54,56,58,60,62,64,66,68,70,72,74,76,78,80,82,84,86,88,90,92,94,96,98,100,102,104,106,108,110,112,114,116,118,120,122,124,-1,-1,-1,126,-1,-1,-1,-1,128,130,132,134,-1,-1,136,138,140,142,144,146,148,150,152,154,156,158,160,162,164,166,168,170,172,174,176,178,180,182,184,186,188,190,192,194,196,198,200,202,204,206,208,210,-1,212,214,-1,-1,216,218,-1,-1,-1,-1,-1,-1,-1,-1,-1,-1,-1,-1,-1,-1,-1,-1,-1,-1,-1,-1,-1,-1,-1,-1,-1,-1,-1,-1,-1,-1,-1,-1,-1,-1,-1,-1,-1,-1,-1,-1,-1,-1,-1,-1,-1,-1,-1,-1,-1,-1,-1,-1,-1,-1,-1,-1,-1,-1,-1,-1,-1,-1,-1,-1,-1,-1,-1,-1,-1,-1,-1,-1,-1,-1,-1,-1,-1,-1,-1,-1,-1,-1,-1,-1,-1,-1,-1,-1,-1,-1,-1,-1,-1,-1,-1,-1,-1,-1],"split_conditions":[2.73E2,1.63E2,3.81E2,1.09E2,2.19E2,3.25E2,4.31E2,8.2E1,1.39E2,1.91E2,2.49E2,2.99E2,3.54E2,4.07E2,4.72E2,6.1E1,9.4E1,1.3233334E1,1.17E1,1.77E2,2.07E2,2.35E2,6.766667E0,5.733333E0,4.4E0,3.39E2,3.67E2,3.97E2,1.5666667E0,4.53E2,4.88E2,4.8E1,1.6E1,1.52E1,1.42E1,1.29E2,1.27E2,1.53E2,1.51E2,1.1166667E1,1.04E1,9.8E0,9.166667E0,8.3E0,7.4666667E0,2.64E2,2.61E2,2.85E2,2.86E2,3.15E2,3.13E2,4.133333E0,3.0666666E0,3.1E0,2.8E0,1.7E0,1.9E0,4.22E2,4.18E2,4.39E2,9E-1,4.6666667E-1,7.8975677E0,-8.161253E0,-7.8081994E0,1.4766666E1,-7.6382003E0,-6.734044E0,-7.138528E0,-6.1495485E0,1.55E1,1.2E2,1.22E1,1.4266666E1,-5.549445E0,-4.458441E0,1.05E1,1.31E1,1.2933333E1,1.71E2,1.19E1,9.266666E0,1.1266666E1,8.733334E0,1.96E2,8.233334E0,2.13E2,2.26E2,9.166667E0,6.8333335E0,8.633333E0,5.6E0,5.733333E0,7.7E0,2.67E2,4.6E0,4.3333335E0,6.3333335E0,6.5333333E0,3.08E2,4E0,5.5333333E0,3.2E2,3.2666667E0,5.0666666E0,3.48E2,3.46E2,2.3666666E0,3.59E2,2.1333334E0,3.75E2,3.87E2,2.4333334E0,1.2666667E0,4.410424E0,1.1333333E0,8.666667E-1,4.7664332E0,5.135632E0,1.2333333E0,7.6666665E-1,6.844314E0,6.5465846E0,7.574159E0,7.2490854E0,-7.0564995E0,-7.3092055E0,-6.4806952E0,-6.8313227E0,-5.631839E0,-5.392651E0,-4.9305964E0,-5.201284E0,-5.827946E0,-6.1146374E0,-3.9333084E0,-4.172133E0,-4.812389E0,-5.176164E0,-4.4530706E0,-4.7186465E0,-3.8199596E0,-3.5610967E0,-4.0168147E0,-4.25862E0,-2.9629393E0,-3.2132156E0,-3.4392846E0,-3.7109196E0,-2.5588214E0,-2.7955253E0,-3.2002568E0,-2.9806888E0,-2.0282829E0,-2.294214E0,-2.7207694E0,-2.4633708E0,-1.6788014E0,-1.4277085E0,-1.7944872E0,-2.072177E0,-9.1041464E-1,-1.1063386E0,-1.2967623E0,-1.5049164E0,-2.7823076E-1,-5.413267E-1,5.779053E-2,-2.6331824E-1,-8.182883E-1,-1.1496491E0,-6.605543E-1,-4.5156732E-1,5.642754E-1,3.0435166E-1,9.639846E-1,6.466673E-1,1.06550895E-1,-1.628692E-1,4.5583344E-1,1.9484459E-1,1.2987596E0,1.5046251E0,1.8689053E0,1.5784495E0,1.0269817E0,7.810228E-1,1.257146E0,1.4782251E0,2.3644917E0,2.111229E0,1.8459675E0,1.6545022E0,2.7410233E0,2.926473E0,2.327172E0,2.5672758E0,3.4295075E0,3.200322E0,2.7424514E0,2.9982011E0,3.866471E0,3.6186078E0,3.2650032E0,3.528975E0,4.2061133E0,4.4780126E0,4.1283183E0,3.8864334E0,4.926786E0,4.6700134E0,5.4091187E0,5.139018E0,5.852023E0,5.5737777E0,6.012529E0,5.646018E0,6.4536285E0,6.145478E0],"split_indices":[1,1,1,1,1,1,1,1,1,1,1,1,1,1,1,1,1,8,8,1,1,1,8,8,8,1,1,1,8,1,1,1,8,8,8,1,1,1,1,8,8,8,8,8,8,1,1,1,1,1,1,8,8,8,8,8,8,1,1,1,8,8,0,0,0,8,0,0,0,0,8,1,8,8,0,0,8,8,8,1,8,8,8,8,1,8,1,1,8,8,8,8,8,8,1,8,8,8,8,1,8,8,1,8,8,1,1,8,1,8,1,1,8,8,0,8,8,0,0,8,8,0,0,0,0,0,0,0,0,0,0,0,0,0,0,0,0,0,0,0,0,0,0,0,0,0,0,0,0,0,0,0,0,0,0,0,0,0,0,0,0,0,0,0,0,0,0,0,0,0,0,0,0,0,0,0,0,0,0,0,0,0,0,0,0,0,0,0,0,0,0,0,0,0,0,0,0,0,0,0,0,0,0,0,0,0,0,0,0,0,0,0,0,0,0,0,0,0,0],"split_type":[0,0,0,0,0,0,0,0,0,0,0,0,0,0,0,0,0,0,0,0,0,0,0,0,0,0,0,0,0,0,0,0,0,0,0,0,0,0,0,0,0,0,0,0,0,0,0,0,0,0,0,0,0,0,0,0,0,0,0,0,0,0,0,0,0,0,0,0,0,0,0,0,0,0,0,0,0,0,0,0,0,0,0,0,0,0,0,0,0,0,0,0,0,0,0,0,0,0,0,0,0,0,0,0,0,0,0,0,0,0,0,0,0,0,0,0,0,0,0,0,0,0,0,0,0,0,0,0,0,0,0,0,0,0,0,0,0,0,0,0,0,0,0,0,0,0,0,0,0,0,0,0,0,0,0,0,0,0,0,0,0,0,0,0,0,0,0,0,0,0,0,0,0,0,0,0,0,0,0,0,0,0,0,0,0,0,0,0,0,0,0,0,0,0,0,0,0,0,0,0,0,0,0,0,0,0,0,0,0,0,0,0,0,0,0,0,0,0,0],"sum_hessian":[1.464E5,7.115E4,7.525E4,3.5386E4,3.5764E4,3.7311E4,3.7939E4,1.9135E4,1.6251E4,1.7166E4,1.8598E4,1.8422E4,1.8889E4,1.6769E4,2.117E4,1.0102E4,9.033E3,9.452E3,6.799E3,8.609E3,8.557E3,9.744E3,8.854E3,9.402E3,9.02E3,9.226E3,9.663E3,9.115E3,7.654E3,1.4248E4,6.922E3,3.388E3,6.714E3,4.051E3,4.982E3,4.181E3,5.271E3,2.695E3,4.104E3,4.043E3,4.566E3,5.024E3,3.533E3,4.894E3,4.85E3,4.601E3,4.253E3,5.225E3,4.177E3,3.85E3,5.17E3,4.515E3,4.711E3,4.504E3,5.159E3,5.842E3,3.273E3,5.132E3,2.522E3,7.897E3,6.351E3,3.972E3,2.95E3,1.121E3,2.267E3,3.787E3,2.927E3,2.114E3,1.937E3,2.008E3,2.974E3,2.37E3,1.811E3,3.782E3,1.489E3,1.148E3,1.547E3,2.418E3,1.686E3,2.299E3,1.744E3,2.524E3,2.042E3,2.805E3,2.219E3,2.003E3,1.53E3,2.73E3,2.164E3,2.179E3,2.671E3,2.506E3,2.095E3,2.678E3,1.575E3,1.891E3,3.334E3,2.614E3,1.563E3,1.988E3,1.862E3,3.402E3,1.768E3,2.979E3,1.536E3,1.88E3,2.831E3,2.972E3,1.532E3,3.627E3,1.532E3,1.508E3,4.334E3,1.89E3,1.383E3,2.861E3,2.271E3,1.557E3,9.65E2,2.707E3,5.19E3,4.517E3,1.834E3,1.739E3,2.233E3,1.258E3,2.529E3,2.033E3,9.41E2,1.112E3,1.258E3,7.75E2,1.036E3,2.101E3,1.681E3,4.75E2,1.072E3,1.645E3,7.73E2,1.289E3,3.97E2,1.11E3,1.189E3,8.36E2,9.08E2,8.37E2,1.687E3,1.229E3,8.13E2,1.071E3,1.734E3,8.27E2,1.392E3,8.71E2,1.132E3,9.14E2,6.16E2,9.96E2,1.734E3,1.33E3,8.34E2,1.174E3,1.005E3,1.925E3,7.46E2,5.56E2,1.95E3,8.88E2,1.207E3,1.456E3,1.222E3,9.16E2,6.59E2,3.83E2,1.508E3,6.93E2,2.641E3,1.077E3,1.537E3,1.068E3,4.95E2,9.87E2,1.001E3,1.298E3,5.64E2,2.286E3,1.116E3,1.119E3,6.49E2,1.209E3,1.77E3,1.171E3,3.65E2,9.86E2,8.94E2,1.503E3,1.328E3,1.258E3,1.714E3,7.14E2,8.18E2,1.732E3,1.895E3,1.041E3,4.91E2,4.57E2,1.051E3,2.555E3,1.779E3,6.02E2,1.288E3,1.394E3,1.467E3,7.24E2,1.547E3,1.912E3,7.95E2,2.13E3,3.06E3],"tree_param":{"num_deleted":"0","num_feature":"9","num_nodes":"219","size_leaf_vector":"1"}},{"base_weights":[-5.3720357E-4,-7.956194E1,7.298398E1,-1.1917468E2,-4.0405746E1,3.3704506E1,1.113444E2,-1.3568776E2,-9.901952E1,-6.0702347E1,-2.1155361E1,1.4247338E1,5.3785515E1,8.874869E1,1.288398E2,-1.432201E2,-1.2520962E2,-1.08004E2,-8.898829E1,-7.02703E1,-5.255503E1,-2.980095E1,-1.342572E1,4.74967E0,2.2915064E1,4.3511803E1,6.3484386E1,8.0435005E1,9.859635E1,1.2053178E2,1.4288187E2,-1.4867456E2,-1.3857242E2,-1.1862949E2,-1.2847316E2,-1.03053154E2,-1.11865295E2,-8.486406E1,-9.53309E1,-7.535173E1,-6.497896E1,-5.6698887E1,-4.755947E1,-3.5535976E1,-2.6229828E1,-9.432587E0,-1.9119247E1,8.668399E0,-7.1522504E-1,2.786828E1,1.8200417E1,3.8741108E1,4.8362453E1,5.8199432E1,6.7430664E1,7.62739E1,8.4925575E1,1.0309253E2,9.30935E1,1.1441442E2,1.2570348E2,1.3696158E2,1.4832564E2,-7.753554E0,-1.4683582E2,-1.3605574E2,-7.20459E0,-6.11099E0,-5.7786355E0,-1.3101378E2,-6.16199E0,-5.272757E0,-9.9168465E1,-1.14867134E2,-5.4300103E0,-8.81102E1,-8.0100685E1,-9.783677E1,-4.4645915E0,-7.0896545E1,-7.910322E1,-6.126004E1,-6.8836586E1,-5.3753265E1,-6.1078445E1,-4.3726482E1,-5.1480415E1,-3.303989E1,-4.0706383E1,-2.2602976E1,-2.9495789E1,-1.3519276E1,-6.4710135E0,-2.2099014E1,-1.4524879E1,4.1063414E0,1.1111362E1,-4.894304E0,2.481666E0,2.2526323E1,3.083075E1,1.5071061E1,2.2508438E1,4.2677303E1,3.5212532E1,5.199474E1,4.4584156E1,6.067237E1,5.231369E1,7.045677E1,6.3706165E1,7.858888E1,3.6367455E0,4.462766E0,8.233712E1,4.910128E0,1.0581545E2,8.935706E1,9.6746704E1,1.16864334E2,1.10276E2,1.2823927E2,1.2233122E2,6.665277E0,1.3975433E2,7.2780113E0,7.6069093E0,-7.226194E0,-7.5600014E0,-6.6376886E0,-6.8955407E0,-6.4233713E0,-6.7137475E0,-4.727594E0,-5.0342274E0,-5.6421185E0,-5.9246287E0,-4.2639103E0,-4.5178356E0,-3.8789966E0,-4.1677356E0,-4.7538834E0,-5.041581E0,-3.6712596E0,-3.4183896E0,-3.8634686E0,-4.1018085E0,-2.926806E0,-3.1439114E0,-3.3528733E0,-3.6366303E0,-2.5550125E0,-2.7715755E0,-2.9888275E0,-3.2591808E0,-1.956644E0,-2.2689798E0,-2.478054E0,-2.7157285E0,-1.4513872E0,-1.7410349E0,-1.9763244E0,-2.2622535E0,-1.2518238E0,-1.0252491E0,-1.3986462E0,-1.616124E0,-4.8433724E-1,-7.38059E-1,-1.6685401E-1,-4.554254E-1,-9.973039E-1,-1.2067555E0,-6.5091246E-1,-9.0515375E-1,2.8485E-1,8.4122956E-2,7.3797435E-1,4.6522552E-1,-1.6267468E-1,-4.6898708E-1,1.654758E-2,2.6211542E-1,1.2339157E0,1.0356948E0,1.6583279E0,1.3954705E0,8.1414765E-1,6.041072E-1,1.0226752E0,1.2353991E0,2.0349615E0,2.2436037E0,1.8387388E0,1.6106421E0,2.7068753E0,2.501085E0,2.0896327E0,2.3248117E0,3.1480768E0,2.9087207E0,2.5113456E0,2.7076693E0,3.4148278E0,3.650814E0,3.2646272E0,3.026941E0,4.1799474E0,3.872744E0,4.022835E0,4.2512255E0,5.4476557E0,5.1982145E0,4.564406E0,4.324671E0,4.9494014E0,4.646642E0,5.6736846E0,5.9375734E0,5.369619E0,5.650907E0,6.238054E0,6.4858246E0,5.9449153E0,6.23315E0,7.085851E0,6.7437906E0],"categories":[],"categories_nodes":[],"categories_segments":[],"categories_sizes":[],"default_left":[0,0,0,0,0,0,0,0,0,0,0,0,0,0,0,0,0,0,0,0,0,0,0,0,0,0,0,0,0,0,0,0,0,0,0,0,0,0,0,0,0,0,0,0,0,0,0,0,0,0,0,0,0,0,0,0,0,0,0,0,0,0,0,0,0,0,0,0,0,0,0,0,0,0,0,0,0,0,0,0,0,0,0,0,0,0,0,0,0,0,0,0,0,0,0,0,0,0,0,0,0,0,0,0,0,0,0,0,0,0,0,0,0,0,0,0,0,0,0,0,0,0,0,0,0,0,0,0,0,0,0,0,0,0,0,0,0,0,0,0,0,0,0,0,0,0,0,0,0,0,0,0,0,0,0,0,0,0,0,0,0,0,0,0,0,0,0,0,0,0,0,0,0,0,0,0,0,0,0,0,0,0,0,0,0,0,0,0,0,0,0,0,0,0,0,0,0,0,0,0,0,0,0,0,0,0,0,0,0,0,0,0,0,0,0,0,0,0,0,0,0,0,0,0,0,0,0],"id":7,"left_children":[1,3,5,7,9,11,13,15,17,19,21,23,25,27,29,31,33,35,37,39,41,43,45,47,49,51,53,55,57,59,61,63,65,67,69,71,73,75,77,79,81,83,85,87,89,91,93,95,97,99,101,103,105,107,109,111,113,115,117,119,121,123,125,-1,127,129,-1,-1,-1,131,-1,-1,133,135,-1,137,139,141,-1,143,145,147,149,151,153,155,157,159,161,163,165,167,169,171,173,175,177,179,181,183,185,187,189,191,193,195,197,199,201,203,205,207,-1,-1,209,-1,211,213,215,217,219,221,223,-1,225,-1,-1,-1,-1,-1,-1,-1,-1,-1,-1,-1,-1,-1,-1,-1,-1,-1,-1,-1,-1,-1,-1,-1,-1,-1,-1,-1,-1,-1,-1,-1,-1,-1,-1,-1,-1,-1,-1,-1,-1,-1,-1,-1,-1,-1,-1,-1,-1,-1,-1,-1,-1,-1,-1,-1,-1,-1,-1,-1,-1,-1,-1,-1,-1,-1,-1,-1,-1,-1,-1,-1,-1,-1,-1,-1,-1,-1,-1,-1,-1,-1,-1,-1,-1,-1,-1,-1,-1,-1,-1,-1,-1,-1,-1,-1,-1,-1,-1,-1,-1,-1,-1],"loss_changes":[8.5011994E8,1.086409E8,1.1504925E8,1.1575136E7,1.376252E7,1.47403E7,1.5259808E7,1.492384E6,1.403904E6,1.332972E6,1.2079045E6,1.5774502E6,1.847216E6,1.37248E6,2.522528E6,2.6144E5,1.568E5,1.46552E5,1.859E5,2.07056E5,1.89096E5,1.73848E5,2.168935E5,1.958504E5,2.334635E5,2.06834E5,1.95208E5,1.64456E5,1.81256E5,4.18528E5,2.4032E5,3.728E4,6.4048E4,1.5168E4,5.4896E4,2.3468E4,3.2944E4,6.257E4,3.5362E4,6.1498E4,5.1288E4,6.1981E4,6.0976E4,4.0883E4,6.16745E4,6.785894E4,5.354975E4,5.9312312E4,5.104757E4,7.65965E4,6.8900875E4,6.172E4,5.9001E4,5.6341E4,5.7048E4,3.3264E4,4.1864E4,4.6012E4,3.8846E4,5.0784E4,4.7632E4,2.1064E4,2.2144E4,0E0,1.8344E4,7.136E3,0E0,0E0,0E0,1.2488E4,0E0,0E0,3.21E2,4.226E3,0E0,9.27E3,8.593E3,7.344E3,0E0,6.778E3,5.339E3,5.042E3,8.231E3,1.0671E4,6.937E3,1.4429E4,8.5905E3,1.479375E4,3.893375E3,1.2240125E4,1.10025E4,1.108025E4,2.6891078E4,9.973375E3,8.1258125E3,7.157916E3,2.2722406E4,1.2157234E4,1.2852635E4,6.2988125E3,2.0494E4,1.0590375E4,9.25325E3,7.49475E3,1.00905E4,6.8975E3,9.783E3,1.2766E4,1.952E3,1.1617E4,8.398E3,9.798E3,0E0,0E0,7.11E3,0E0,4.404E3,1.687E3,5.733E3,1.166E4,6.47E3,5.432E3,1.0792E4,0E0,1.788E3,0E0,0E0,0E0,0E0,0E0,0E0,0E0,0E0,0E0,0E0,0E0,0E0,0E0,0E0,0E0,0E0,0E0,0E0,0E0,0E0,0E0,0E0,0E0,0E0,0E0,0E0,0E0,0E0,0E0,0E0,0E0,0E0,0E0,0E0,0E0,0E0,0E0,0E0,0E0,0E0,0E0,0E0,0E0,0E0,0E0,0E0,0E0,0E0,0E0,0E0,0E0,0E0,0E0,0E0,0E0,0E0,0E0,0E0,0E0,0E0,0E0,0E0,0E0,0E0,0E0,0E0,0E0,0E0,0E0,0E0,0E0,0E0,0E0,0E0,0E0,0E0,0E0,0E0,0E0,0E0,0E0,0E0,0E0,0E0,0E0,0E0,0E0,0E0,0E0,0E0,0E0,0E0,0E0,0E0,0E0,0E0,0E0,0E0,0E0,0E0,0E0,0E0],"parents":[2147483647,0,0,1,1,2,2,3,3,4,4,5,5,6,6,7,7,8,8,9,9,10,10,11,11,12,12,13,13,14,14,15,15,16,16,17,17,18,18,19,19,20,20,21,21,22,22,23,23,24,24,25,25,26,26,27,27,28,28,29,29,30,30,31,31,32,32,33,33,34,34,35,35,36,36,37,37,38,38,39,39,40,40,41,41,42,42,43,43,44,44,45,45,46,46,47,47,48,48,49,49,50,50,51,51,52,52,53,53,54,54,55,55,56,56,57,57,58,58,59,59,60,60,61,61,62,62,64,64,65,65,69,69,72,72,73,73,75,75,76,76,77,77,79,79,80,80,81,81,82,82,83,83,84,84,85,85,86,86,87,87,88,88,89,89,90,90,91,91,92,92,93,93,94,94,95,95,96,96,97,97,98,98,99,99,100,100,101,101,102,102,103,103,104,104,105,105,106,106,107,107,108,108,109,109,110,110,111,111,114,114,116,116,117,117,118,118,119,119,120,120,121,121,122,122,124,124],"right_children":[2,4,6,8,10,12,14,16,18,20,22,24,26,28,30,32,34,36,38,40,42,44,46,48,50,52,54,56,58,60,62,64,66,68,70,72,74,76,78,80,82,84,86,88,90,92,94,96,98,100,102,104,106,108,110,112,114,116,118,120,122,124,126,-1,128,130,-1,-1,-1,132,-1,-1,134,136,-1,138,140,142,-1,144,146,148,150,152,154,156,158,160,162,164,166,168,170,172,174,176,178,180,182,184,186,188,190,192,194,196,198,200,202,204,206,208,-1,-1,210,-1,212,214,216,218,220,222,224,-1,226,-1,-1,-1,-1,-1,-1,-1,-1,-1,-1,-1,-1,-1,-1,-1,-1,-1,-1,-1,-1,-1,-1,-1,-1,-1,-1,-1,-1,-1,-1,-1,-1,-1,-1,-1,-1,-1,-1,-1,-1,-1,-1,-1,-1,-1,-1,-1,-1,-1,-1,-1,-1,-1,-1,-1,-1,-1,-1,-1,-1,-1,-1,-1,-1,-1,-1,-1,-1,-1,-1,-1,-1,-1,-1,-1,-1,-1,-1,-1,-1,-1,-1,-1,-1,-1,-1,-1,-1,-1,-1,-1,-1,-1,-1,-1,-1,-1,-1,-1,-1,-1,-1],"split_conditions":[2.7E2,1.61E2,3.79E2,1.09E2,2.17E2,3.24E2,4.29E2,8.5E1,1.35E2,1.87E2,2.44E2,2.95E2,3.52E2,4.05E2,4.68E2,6.7E1,1.42E1,1.3333333E1,1.2466666E1,1.75E2,2.03E2,2.28E2,7.1666665E0,5.9333334E0,4.6666665E0,3.38E2,3.64E2,3.92E2,1.4333333E0,4.47E2,4.82E2,4.8E1,1.62E1,9.9E1,9.9E1,1.27E2,1.2E2,1.53E2,1.49E2,1.0966666E1,1.04E1,1.0066667E1,9.166667E0,8.833333E0,7.766667E0,2.57E2,2.56E2,2.81E2,2.78E2,3.08E2,3.08E2,3.7333333E0,3.3333333E0,3.2666667E0,2.5666666E0,2.3333333E0,1.6666666E0,4.16E2,4.14E2,1.1E0,8E-1,4.74E2,4.96E2,-7.753554E0,1.6733334E1,1.4866667E1,-7.20459E0,-6.11099E0,-5.7786355E0,1.55E1,-6.16199E0,-5.272757E0,1.2E1,1.46E1,-5.4300103E0,1.16E1,1.15E1,1.3233334E1,-4.4645915E0,1.69E2,1.21E1,9.433333E0,1.15E1,9E0,1.1166667E1,7.9333334E0,1.0133333E1,7.5666666E0,9.966666E0,2.37E2,8.733334E0,6E0,6.133333E0,7.9333334E0,8.066667E0,5.4666667E0,4.8E0,7.1666665E0,2.86E2,4.0666666E0,4E0,5.8E0,3.15E2,3.32E2,4.6E0,2.7333333E0,3.43E2,2.6E0,3.57E2,3.73E2,3.2E0,1.4333333E0,3.6367455E0,4.462766E0,3.99E2,4.910128E0,9E-1,2E0,1.9E0,4.37E2,4.37E2,4.54E2,4.54E2,6.665277E0,7E-1,7.2780113E0,7.6069093E0,-7.226194E0,-7.5600014E0,-6.6376886E0,-6.8955407E0,-6.4233713E0,-6.7137475E0,-4.727594E0,-5.0342274E0,-5.6421185E0,-5.9246287E0,-4.2639103E0,-4.5178356E0,-3.8789966E0,-4.1677356E0,-4.7538834E0,-5.041581E0,-3.6712596E0,-3.4183896E0,-3.8634686E0,-4.1018085E0,-2.926806E0,-3.1439114E0,-3.3528733E0,-3.6366303E0,-2.5550125E0,-2.7715755E0,-2.9888275E0,-3.2591808E0,-1.956644E0,-2.2689798E0,-2.478054E0,-2.7157285E0,-1.4513872E0,-1.7410349E0,-1.9763244E0,-2.2622535E0,-1.2518238E0,-1.0252491E0,-1.3986462E0,-1.616124E0,-4.8433724E-1,-7.38059E-1,-1.6685401E-1,-4.554254E-1,-9.973039E-1,-1.2067555E0,-6.5091246E-1,-9.0515375E-1,2.8485E-1,8.4122956E-2,7.3797435E-1,4.6522552E-1,-1.6267468E-1,-4.6898708E-1,1.654758E-2,2.6211542E-1,1.2339157E0,1.0356948E0,1.6583279E0,1.3954705E0,8.1414765E-1,6.041072E-1,1.0226752E0,1.2353991E0,2.0349615E0,2.2436037E0,1.8387388E0,1.6106421E0,2.7068753E0,2.501085E0,2.0896327E0,2.3248117E0,3.1480768E0,2.9087207E0,2.5113456E0,2.7076693E0,3.4148278E0,3.650814E0,3.2646272E0,3.026941E0,4.1799474E0,3.872744E0,4.022835E0,4.2512255E0,5.4476557E0,5.1982145E0,4.564406E0,4.324671E0,4.9494014E0,4.646642E0,5.6736846E0,5.9375734E0,5.369619E0,5.650907E0,6.238054E0,6.4858246E0,5.9449153E0,6.23315E0,7.085851E0,6.7437906E0],"split_indices":[1,1,1,1,1,1,1,1,1,1,1,1,1,1,1,1,8,8,8,1,1,1,8,8,8,1,1,1,8,1,1,1,8,1,1,1,1,1,1,8,8,8,8,8,8,1,1,1,1,1,1,8,8,8,8,8,8,1,1,8,8,1,1,0,8,8,0,0,0,8,0,0,8,8,0,8,8,8,0,1,8,8,8,8,8,8,8,8,8,1,8,8,8,8,8,8,8,8,1,8,8,8,1,1,8,8,1,8,1,1,8,8,0,0,1,0,8,8,8,1,1,1,1,0,8,0,0,0,0,0,0,0,0,0,0,0,0,0,0,0,0,0,0,0,0,0,0,0,0,0,0,0,0,0,0,0,0,0,0,0,0,0,0,0,0,0,0,0,0,0,0,0,0,0,0,0,0,0,0,0,0,0,0,0,0,0,0,0,0,0,0,0,0,0,0,0,0,0,0,0,0,0,0,0,0,0,0,0,0,0,0,0,0,0,0,0,0,0,0,0,0,0,0,0,0,0,0],"split_type":[0,0,0,0,0,0,0,0,0,0,0,0,0,0,0,0,0,0,0,0,0,0,0,0,0,0,0,0,0,0,0,0,0,0,0,0,0,0,0,0,0,0,0,0,0,0,0,0,0,0,0,0,0,0,0,0,0,0,0,0,0,0,0,0,0,0,0,0,0,0,0,0,0,0,0,0,0,0,0,0,0,0,0,0,0,0,0,0,0,0,0,0,0,0,0,0,0,0,0,0,0,0,0,0,0,0,0,0,0,0,0,0,0,0,0,0,0,0,0,0,0,0,0,0,0,0,0,0,0,0,0,0,0,0,0,0,0,0,0,0,0,0,0,0,0,0,0,0,0,0,0,0,0,0,0,0,0,0,0,0,0,0,0,0,0,0,0,0,0,0,0,0,0,0,0,0,0,0,0,0,0,0,0,0,0,0,0,0,0,0,0,0,0,0,0,0,0,0,0,0,0,0,0,0,0,0,0,0,0,0,0,0,0,0,0,0,0,0,0,0,0,0,0,0,0,0,0],"sum_hessian":[1.464E5,7.0044E4,7.6356E4,3.4818E4,3.5226E4,3.7727E4,3.8629E4,1.9135E4,1.5683E4,1.7146E4,1.808E4,1.9162E4,1.8565E4,1.686E4,2.1769E4,1.1125E4,8.01E3,8.268E3,7.415E3,7.882E3,9.264E3,8.533E3,9.547E3,9.144E3,1.0018E4,9.018E3,9.547E3,9.147E3,7.713E3,1.3683E4,8.086E3,5.104E3,6.021E3,2.668E3,5.342E3,3.635E3,4.633E3,4.502E3,2.913E3,4.014E3,3.868E3,5.058E3,4.206E3,3.271E3,5.262E3,5.613E3,3.934E3,5.325E3,3.819E3,4.883E3,5.135E3,4.551E3,4.467E3,4.088E3,5.459E3,4.757E3,4.39E3,4.235E3,3.478E3,6.279E3,7.404E3,3.886E3,4.2E3,1.121E3,3.983E3,4.153E3,1.868E3,1.209E3,1.459E3,3.58E3,1.762E3,2.23E3,1.405E3,2.396E3,2.237E3,2.667E3,1.835E3,2.048E3,8.65E2,1.844E3,2.17E3,1.978E3,1.89E3,3.032E3,2.026E3,2.133E3,2.073E3,2.211E3,1.06E3,2.497E3,2.765E3,2.357E3,3.256E3,2.384E3,1.55E3,1.858E3,3.467E3,1.655E3,2.164E3,1.745E3,3.138E3,2.977E3,2.158E3,2.146E3,2.405E3,2.271E3,2.196E3,2.872E3,1.216E3,3.002E3,2.457E3,2.863E3,1.894E3,1.63E3,2.76E3,1.528E3,2.707E3,1.732E3,1.746E3,3.927E3,2.352E3,4.205E3,3.199E3,1.704E3,2.182E3,2.457E3,1.743E3,2.626E3,1.357E3,1.52E3,2.633E3,2.033E3,1.547E3,3.63E2,1.042E3,1.558E3,8.38E2,1.197E3,1.47E3,1.048E3,7.87E2,1.083E3,9.65E2,9.08E2,9.36E2,1.352E3,8.18E2,7.51E2,1.227E3,1.31E3,5.8E2,1.187E3,1.845E3,1.55E3,4.76E2,5.71E2,1.562E3,1.247E3,8.26E2,6.85E2,1.526E3,8.49E2,2.11E2,1.151E3,1.346E3,1.804E3,9.61E2,5.79E2,1.778E3,1.489E3,1.767E3,1.164E3,1.22E3,1.094E3,4.56E2,1.121E3,7.37E2,1.146E3,2.321E3,1.213E3,4.42E2,1.217E3,9.47E2,7.92E2,9.53E2,1.738E3,1.4E3,2.115E3,8.62E2,1.121E3,1.037E3,1.139E3,1.007E3,1.574E3,8.31E2,1.076E3,1.195E3,9.02E2,1.294E3,1.486E3,1.386E3,5.83E2,6.33E2,1.643E3,1.359E3,1.624E3,8.33E2,5.15E2,2.348E3,1.642E3,1.118E3,9.83E2,1.724E3,1.016E3,7.16E2,1.084E3,6.62E2,1.426E3,2.501E3,1.166E3,1.186E3,1.279E3,2.926E3,1.315E3,1.884E3,1.536E3,6.46E2],"tree_param":{"num_deleted":"0","num_feature":"9","num_nodes":"227","size_leaf_vector":"1"}},{"base_weights":[-5.893367E-4,-7.445279E1,7.0395134E1,-1.11437836E2,-3.5488796E1,3.373521E1,1.0644639E2,-1.2828296E2,-9.144062E1,-5.5179832E1,-1.8492395E1,1.4897834E1,5.21051E1,8.60197E1,1.2324421E2,-1.3606297E2,-1.1830154E2,-1.0067938E2,-8.11818E1,-6.2539627E1,-4.7108562E1,-2.6075518E1,-1.014502E1,6.7144647E0,2.342608E1,4.226595E1,6.149394E1,7.824046E1,9.637606E1,1.1620205E2,1.3736058E2,-1.40441E2,-1.3081343E2,-1.1357752E2,-1.2284048E2,-9.545021E1,-1.0443813E2,-8.610612E1,-7.648255E1,-5.9167835E1,-6.896328E1,-4.279078E1,-5.1178646E1,-3.0802338E1,-2.1867725E1,-5.778785E0,-1.4866051E1,1.1459694E1,2.833708E0,2.8658928E1,1.9524492E1,3.745196E1,4.6870724E1,5.762001E1,6.613094E1,7.44729E1,8.380506E1,9.909183E1,8.901361E1,1.1129594E2,1.2201054E2,1.3402089E2,7.1761713E0,-1.3740417E2,-7.224746E0,-6.335607E0,-1.3361806E2,-5.888831E0,-1.1031746E2,-1.25241066E2,-5.8991084E0,-9.830321E1,-4.536919E0,-1.06541084E2,-4.9956E0,-8.271266E1,-9.053337E1,-7.2195465E1,-7.947353E1,-6.484449E1,-5.7034603E1,-7.24044E1,-3.2399633E0,-4.643253E1,-3.8840637E1,-5.263095E1,-4.5531567E1,-2.7597754E1,-3.441552E1,-1.7991013E1,-2.4611942E1,-9.264116E0,-2.8162422E0,-1.7532907E1,-1.0323299E1,7.353562E0,1.361676E1,-4.826563E-1,6.9811764E0,2.6058905E1,3.3385853E1,1.7097492E1,2.418224E1,3.999742E1,3.2492348E1,4.9981064E1,4.302134E1,6.0655293E1,5.3362644E1,6.8055374E1,6.120088E1,7.80493E1,7.2065E1,4.403513E0,8.1277054E1,9.564267E1,1.025284E2,4.35827E0,4.731148E0,1.1398769E2,1.0777327E2,1.2300774E2,5.7940283E0,6.9478416E0,1.3212466E2,-7.0773196E0,-6.7478943E0,-6.5791054E0,-6.8495545E0,-5.2286787E0,-5.587044E0,-6.1670833E0,-6.449155E0,-5.049903E0,-4.832413E0,-5.1735454E0,-5.437838E0,-4.002689E0,-4.2482605E0,-4.4068637E0,-4.6851897E0,-3.5075986E0,-3.6902547E0,-3.855271E0,-4.0757856E0,-3.0178545E0,-3.294506E0,-2.685992E0,-2.9476771E0,-3.5012844E0,-3.7939808E0,-2.1699371E0,-2.3876722E0,-1.804011E0,-2.041927E0,-2.5434744E0,-2.7470365E0,-2.1601446E0,-2.384117E0,-1.1947633E0,-1.4491571E0,-1.6405222E0,-1.922809E0,-8.1193465E-1,-9.830533E-1,-1.1629018E0,-1.3578557E0,-3.1628782E-1,-5.255045E-1,6.8401354E-3,-2.7717322E-1,-7.3916435E-1,-1.0397142E0,-5.958811E-1,-4.0462586E-1,2.3722239E-1,4.3817124E-1,8.7106144E-1,6.1701125E-1,1.1192526E-1,-1.5970205E-1,4.1049954E-1,1.2942281E-1,1.1960638E0,1.4050865E0,1.8819872E0,1.5817972E0,9.2844355E-1,7.034809E-1,1.337839E0,1.130361E0,2.136836E0,1.9051634E0,1.5698241E0,1.7378067E0,2.5864546E0,2.3771377E0,2.0252519E0,2.2618637E0,3.180329E0,2.9596567E0,2.525772E0,2.7909842E0,3.5958931E0,3.3339334E0,2.9719691E0,3.188443E0,4.068977E0,3.8157334E0,3.6931736E0,3.4935024E0,4.163584E0,3.9609375E0,4.934782E0,4.6775947E0,5.245684E0,4.998781E0,5.5788913E0,5.847606E0,5.2103887E0,5.4925075E0,6.036098E0,6.2407093E0,6.4708734E0,6.750715E0],"categories":[],"categories_nodes":[],"categories_segments":[],"categories_sizes":[],"default_left":[0,0,0,0,0,0,0,0,0,0,0,0,0,0,0,0,0,0,0,0,0,0,0,0,0,0,0,0,0,0,0,0,0,0,0,0,0,0,0,0,0,0,0,0,0,0,0,0,0,0,0,0,0,0,0,0,0,0,0,0,0,0,0,0,0,0,0,0,0,0,0,0,0,0,0,0,0,0,0,0,0,0,0,0,0,0,0,0,0,0,0,0,0,0,0,0,0,0,0,0,0,0,0,0,0,0,0,0,0,0,0,0,0,0,0,0,0,0,0,0,0,0,0,0,0,0,0,0,0,0,0,0,0,0,0,0,0,0,0,0,0,0,0,0,0,0,0,0,0,0,0,0,0,0,0,0,0,0,0,0,0,0,0,0,0,0,0,0,0,0,0,0,0,0,0,0,0,0,0,0,0,0,0,0,0,0,0,0,0,0,0,0,0,0,0,0,0,0,0,0,0,0,0,0,0,0,0,0,0,0,0,0,0,0,0,0,0,0,0,0,0,0,0,0,0],"id":8,"left_children":[1,3,5,7,9,11,13,15,17,19,21,23,25,27,29,31,33,35,37,39,41,43,45,47,49,51,53,55,57,59,61,63,65,67,69,71,73,75,77,79,81,83,85,87,89,91,93,95,97,99,101,103,